<http://saffron.insight-centre.org/ontology#hypernymy>	0.1283047	-0.566953	-0.5964891	-0.16729389	0.3397859	0.269691	-0.12812798	-0.32887703	-0.48769453	0.007554478	-0.6410085	-0.6755961	0.17258276	0.09844881	0.46601287	-0.31449744	0.45871672	-0.053097375	-0.39571673	-0.090894654	-0.7081401	0.1054703	-0.64045733	0.042858526	-0.10401029	0.16496378	0.22970657	0.38355127	0.6203654	-0.2482058	0.416061	0.31016722	0.049754173	0.4621125	0.12299628	-0.0062204706	0.25678545	0.33511704	0.10159397	-0.34708324	0.22581281	-0.29610702	0.5544013	0.18554863	0.06910671	-0.44898078	0.46474034	-0.17332697	-0.37216213	-0.55160666	0.28197208	0.032558862	0.24897608	0.031325556	-0.19789855	0.37621495	-0.23338653	0.4948753	-0.52716434	0.010692376	0.26900163	-0.008520522	-0.40398806	0.34124714	-0.03553544	-0.13664521	0.66373295	-0.2062068	-0.22971968	-0.8322357	0.4308488	0.3217032	0.05082579	-0.27384615	-0.010845573	-0.089305416	0.521666	0.118355185	0.22907002	0.08533446	-0.16461566	-0.15915905	-0.30252105	-0.21153945	0.50491035	-0.47820947	-0.42352244	-0.04133833	0.1661482	-0.09264627	0.20243427	-0.2076943	-0.22077182	0.028350899	0.51613563	-0.33665425	-0.66804135	0.45267102	-0.23704387	-0.23249245	-0.03034239	0.49822015	-0.5550076	0.17050444	-0.23354858	0.26198927	-0.4005045	0.12537117	-0.3606405	0.7250411	0.2273821	-0.3048748	-0.31568065	-0.0111693125	0.19693021	0.74085915	-0.22732759	0.3829234	0.09918387	-0.28292677	-0.34038258	-0.52731216	-0.9733869	-0.6400304	0.36541152	-0.15112641	-0.40510014	-0.3241538	-0.61012554	0.35018757	0.6087981	0.43082157	0.09497462	-0.16913842	-0.11398375	0.16839914	0.3126841	-0.1903649	-0.5980166	0.16077629	0.1648528	0.28928193	0.5388838	0.24171907	-0.19199306	-0.26463184	0.19944593	0.27751735	-0.4540763	0.40500605	-0.28082073	-0.23858668	0.38725105	0.109755054	0.05810701	-0.37046942	-0.21002139	-0.114485905	0.10541252	-0.033739675	0.09591099	0.11023009	-0.2582211	0.010318492	0.18503891	0.16939677	-0.09537161	0.15216313	0.04651931	0.043144554	0.28270534	0.5368367	-0.22864123	0.38899267	0.38337374	0.28034794	0.20704165	0.083799444	-0.44100824	-0.1302879	-0.4220666	0.4258701	-0.08102492	0.20098554	-0.44165388	-0.0031985682	0.60310477	0.0032370083	0.2386342	0.55581355	0.00060606474	0.31282353	-0.1354832	-0.24297202	0.33520123	-0.65494907	-0.56316453	0.19756733	-0.19622506	-0.23835778	0.45954403	0.17866428	-0.5691988	-0.18820445	-0.7456166	-0.41390163	-0.1536388	0.0023673554	0.36676693	0.19661841	-0.4462996	0.056670323	0.42971697	-0.14451256	-0.5680637	0.27417782	-0.56384087	-0.6758587	0.62103885	0.024330704	-0.31273362	0.39262775	-0.19075072	0.5984512	0.16264187	-0.4886703	0.10432401	0.028874068	-0.20306735	0.47192585	0.51476187	-0.08545976	-0.10209979	0.12026668	-0.51136756	-0.53071284	0.37882674	-0.17075425	0.24905086	-0.2728944	-0.32509187	-0.49613675	0.018732855	0.55177444	-0.29096493	0.3080536	-0.6095373	0.24543041	0.17426698	-0.43673044	0.161609	-0.41541743	-0.20675856	0.47798777	0.054149915	0.13075612	0.45626596	-0.3428962	0.4665281	-0.3326619	-0.18348132	-0.44068083	-0.6013218	0.25630078	0.2470626	-0.73115295	-0.48089138	0.13411674	0.32925558	-0.37037003	0.12496137	-0.3867234	0.45205313	0.10502462	0.390959	-0.23512273	-0.47332597	-0.3271246	0.40608865	-0.10367763	0.31395957	0.071131505	-0.02198391	-0.028299581	-0.12744085	0.19437487	0.69209254	0.30915135	-0.12267368	-0.73579365	0.62169564	0.31856573	0.18393221	-0.2084761	0.1432763	-0.005668621	-0.32668495	-0.16055039	0.009717321	-0.030994931
<http://saffron.insight-centre.org/ontology#hypernymy>_reverse	-0.42750153	0.13889809	-0.18054065	0.26831546	-0.055160236	0.13380447	-0.3555398	0.11380562	-0.47960055	0.0019143306	-0.20646821	0.27609956	0.25892544	0.28899556	0.100530684	-0.34292144	-0.15818606	0.3486887	-0.17354883	0.5284692	0.31518075	0.5751754	-0.124845564	-0.19998622	0.56522214	0.44253418	0.48100558	0.37881535	-0.1870151	-0.6093956	0.27591074	0.1673252	0.108667076	-0.64786744	0.03668018	-0.10899277	0.23540048	0.34595776	0.2984662	-0.23976506	-0.1130149	0.4777872	-0.5928386	0.2200908	-0.04175395	0.28103584	0.52648723	-0.5003686	0.26001993	0.34224018	0.03902183	-0.16417588	0.21386707	-0.017964723	0.35627475	-0.3587687	0.2856399	-0.08843176	0.21865939	0.15901332	0.17754947	-0.3316952	0.40586996	0.15891364	-0.013889505	-0.13469772	-0.053593125	-0.3556104	-0.19184113	0.16533367	-0.02479907	0.27559695	-0.24753237	0.47440004	0.029342176	-0.3929063	-0.07156218	-0.38410664	-0.38544127	0.039091386	0.28814548	0.25340584	-0.20721573	-0.13590017	0.53795683	-0.12526397	-0.27103782	0.38737515	0.34249943	0.06986596	-0.48034912	-0.27692658	0.4807605	-0.013098952	0.44321895	0.2219128	-0.29763222	-0.48885208	-0.03440378	0.046869807	-0.028306188	-0.20471157	0.46250737	0.37551162	-0.45549637	-0.20207602	-0.27530712	-0.123346016	-0.009166756	0.021868337	-0.2164977	-0.40985706	0.4263264	-0.23985367	-0.3478484	0.16552393	0.32160223	-0.02218842	-0.44922104	0.20615233	0.27159262	-0.3632753	-0.42383814	0.010670363	0.27152717	0.49019042	1.0027969	-0.19134979	0.22334464	0.29769745	0.19464773	0.41063026	-0.029018322	-0.06212318	0.545887	0.42412353	0.12868527	0.36387348	0.5610919	-0.5663554	0.17375134	0.22659713	0.41119713	0.18631831	0.40793028	-0.5640885	-0.07019147	-0.4464354	-0.5259502	0.053462412	-0.3388746	-0.13765174	0.25473887	0.07921248	-0.17663597	0.39003164	-0.13533759	0.12657048	0.11197754	-0.19495378	-0.34044486	-0.45031452	0.33767334	-0.21750565	-0.36153015	-0.33565602	-0.4331364	0.28260028	-0.057997048	-0.5884293	0.056098867	0.2921953	-0.42877367	-0.074108034	-0.25608727	0.25430536	-0.08837574	-0.07210717	0.3126533	-0.00709947	0.34814015	0.017749809	-0.4090506	-0.03476435	0.38617602	-0.48356614	-0.0920261	0.07266003	-0.27366638	0.46079165	0.28331608	-0.40687424	0.08161064	0.18198036	-0.030596096	0.04208419	0.08340704	-0.5573592	0.4915023	0.2928116	0.4420496	0.5494371	-0.086394675	-0.39923528	-0.23365074	0.23116286	-0.22592448	0.6031167	0.018494442	0.275065	0.49168774	-0.5809606	0.40478662	-0.060302593	-0.11902427	-0.24001287	-0.21906933	0.27482074	0.5324907	-0.35109255	0.22694004	0.42317984	-0.17253678	-0.08772477	-0.5432464	-0.22320643	0.30949652	0.4976675	0.11313904	-0.06577887	-0.33917835	-0.09012025	-0.19164349	-0.022838077	0.21093233	0.15914582	-0.32231078	-0.168439	0.22090966	-0.20897037	0.16354208	-0.08839399	-0.5580174	0.1456061	0.39329973	0.051578626	0.101197444	-0.4078804	-0.24287018	-0.085787855	-0.23112883	0.15773053	0.09558051	-0.56031626	0.6118522	-0.47303534	-0.050797127	0.03612323	-0.36102226	0.07004314	-0.16357552	0.18285213	-0.0741769	0.79358786	0.18973431	-0.3290559	-0.067062326	0.45065233	0.025649415	0.20512982	0.092924014	0.13640295	0.11892319	0.38740584	0.28514493	-0.057294853	-0.45249155	0.04993117	-0.23361522	0.35447457	-0.20679237	0.25502056	0.2994293	0.16413878	0.23279214	0.18760492	0.5757686	-0.21465307	0.43295002	-0.77190566	0.16920877	0.003945802	0.13864249	0.49890634	0.4947902	0.5098129	-0.21876119	0.125581	0.29584527	0.25942138
<http://saffron.insight-centre.org/rdf/relation/hold_in>	-0.23699021	0.034360055	-0.20484555	-0.3137406	-0.079221204	0.2614817	-0.040545136	-0.30671567	-0.16092792	0.1105359	-0.14967579	-0.4531147	-0.45474076	0.014659674	0.10644584	-0.51074797	-0.17322677	0.11280655	0.18574533	-0.20330518	0.34563524	0.18691587	-0.41252902	0.2501101	0.14676028	-0.20576027	-0.4030208	0.27845788	0.22747788	-0.16386162	-0.2403943	-0.29310012	0.51535493	-0.1560315	-0.16057998	0.4785695	0.3986025	0.33619967	-0.4953987	-0.35505754	-0.08985052	-0.5865228	0.23446657	-0.53203595	0.37372836	-0.22613236	-0.50481904	-0.06603856	-0.16428128	-0.06310443	-0.45565018	0.20242628	0.12692389	0.3119596	-0.044141356	0.46747765	0.32623702	0.4509107	-0.09888779	-0.5974744	0.18365707	-0.84121054	0.4218357	0.034378063	-0.25286594	0.19268882	0.41659674	-0.017664772	-0.03697051	-0.1740901	0.40770102	0.22403936	-0.3893287	0.32869053	-0.1802473	-0.18907088	-0.45561653	-0.018111244	0.009760297	-0.26050532	0.39391962	0.61506367	0.17548642	-0.42118317	-0.4202023	0.22217467	0.42458078	-0.3683867	0.11484081	0.3699179	0.5190498	0.0693822	0.5694213	0.38287446	0.0018461505	0.2922058	-0.44832513	0.47634086	-0.20960294	-0.44828758	0.47352389	0.3337156	0.514547	-0.49291277	-0.39981666	-0.37224662	-0.13495083	-0.0036686775	0.0036045355	-0.19934179	-0.4988361	0.095038354	-0.3528229	-0.17593043	0.38879997	0.23550516	-0.37250596	-0.27356398	-0.495864	-0.22188371	-0.10837154	0.5505171	-0.27984974	-0.03966542	-0.003804509	0.27147317	0.21476425	0.3366763	-0.2412237	0.21074387	-0.3249873	-0.31776983	0.5004685	-0.16665436	-0.35114977	-0.5069826	0.17322025	-0.44848946	-0.13173687	-0.20500855	0.07048831	0.42264438	-0.33448416	-0.14163585	-0.51939446	0.63224757	-0.6804528	0.40019682	0.04000781	-0.03844096	0.59268886	-0.3146117	0.43776658	-0.62738144	0.2926755	0.1591333	0.45741603	-0.13542515	0.28142038	-0.21270116	-0.37539363	0.28776124	-0.6316134	-0.2865425	-0.5579655	-0.0058348915	0.12142155	0.3461255	-0.1338377	0.50068015	-0.10434395	0.10569077	0.24398616	0.39912918	0.44551587	0.023443375	0.19227606	-0.05776042	-0.35519525	0.3888963	-0.40384093	-0.2526993	-0.28098354	-0.44182536	-0.37765726	0.38685885	0.17336103	0.15255444	0.18152781	0.48080817	-0.5278069	0.08748174	-0.10982396	0.18027875	0.35081816	-0.40329325	-0.44244397	-0.18528791	0.3291148	-0.3289968	-0.20858985	-0.26489586	0.8865883	-0.6610891	-0.08424692	-0.22202067	0.108461075	0.50066376	0.82281893	0.340244	0.43105656	-0.29824576	0.3491242	-0.4127037	0.14069346	0.3924918	0.39315677	0.14294176	0.39515156	-0.32869697	-0.16912481	0.17946194	0.25865793	0.19386244	-0.41205144	-0.032764837	0.12633671	-0.033737563	0.3520196	-0.034866367	-0.20131049	0.45457777	-0.45243725	0.10096307	-0.43563417	-0.274689	0.006433277	-0.12538873	0.40650725	-0.27055106	0.02589299	-0.35049957	0.42307547	0.42344752	-0.12933701	0.48327386	0.2519897	0.10908594	-0.011028701	0.22116849	-0.12546377	0.15427591	0.32631734	-0.28344095	-0.5098542	-0.42588967	-0.31435162	1.295394	0.33917242	-0.35420263	-0.28385025	0.1441413	-0.34633827	-0.4827089	0.4323843	0.5012923	0.0026529331	-0.045941815	-0.09885964	0.30076385	-0.4422489	0.03918796	-0.39289543	0.30469579	0.048650533	-0.3434559	-0.26217878	-0.23260804	0.1792933	-0.5036488	-0.46391743	0.4820852	0.10389502	0.28000703	-0.07173802	-0.025238555	0.48895696	0.5218404	0.16730426	-0.019409252	0.5036601	0.1682902	-0.5455027	-0.24741739	-0.21842821	0.12220694	-0.14067443	0.3603424	0.16258672	-0.024421386
<http://saffron.insight-centre.org/rdf/relation/hold_in>_reverse	0.344558	0.4589914	-0.5070947	0.109007284	0.16303332	0.00096639484	-0.5890061	-0.3631103	-0.46959928	-0.44807228	-0.27301142	-0.5676557	0.36424842	-0.5984538	-0.4965659	0.9127686	0.3869599	-0.03907329	-0.3879288	0.06969959	-0.098210946	-0.15703025	-0.04526957	-0.053735007	0.13656755	0.2906415	-0.47711638	0.4698724	-0.6362403	-0.1444316	0.16132596	-0.18993886	0.07031157	-0.14125216	0.33545867	-0.4848176	-0.68119884	-0.1434311	0.12279001	-0.40034106	-0.05289738	0.5186102	0.5814162	0.08376232	-0.24816848	-0.10734673	-0.0884754	-0.53452367	0.42155528	0.6420531	0.068376236	0.32225412	0.01888165	-0.63513535	0.13157597	-0.38815776	0.58330077	0.27668563	0.090405114	0.13917145	0.65628123	-0.65571487	-0.56176364	0.017127387	-0.8107867	0.13756023	-0.7097805	-0.50561917	-0.3769482	0.22333714	-0.47260335	0.22704269	0.5957518	-0.38046712	0.28245667	0.29067338	-0.4081473	0.034003343	-0.36328378	-0.5855439	0.56744623	-0.13001245	-0.09399154	0.45626608	0.018549334	-0.42668113	0.10471211	0.4404742	-0.2913813	0.095127515	0.3057398	-0.18055263	0.20911075	0.4998035	-0.5906474	0.1523612	-0.264196	-0.54591876	0.37319133	0.4164436	-0.15353677	-0.03295406	-0.07326579	0.08618951	0.5471457	-0.036986023	-0.46043783	-0.27194607	0.097740635	-0.6805919	-0.4312545	-0.060551785	0.52513975	0.34817046	-0.054857004	-0.63584626	0.08597802	-0.21619444	-0.5589103	0.35377282	0.35715953	0.19249621	0.16887398	-0.3749743	-0.38068837	0.30993763	-0.10422815	0.34299347	-0.31703833	-0.51164675	0.45019463	-0.4999649	0.34300536	-0.2278978	-0.5558891	-0.0158791	-0.07417187	-0.4246902	-0.15931956	-0.0048312116	0.16952762	0.29378405	-0.3179933	-0.45935106	-0.15369438	-0.76206654	0.27653378	0.23428102	0.48668405	-0.53456396	-0.18113832	0.12052356	-0.090978034	-0.46733356	-0.31329802	0.14299226	-0.4517586	0.41274124	0.3876934	0.27481225	-0.372677	0.011524616	-0.46039972	-0.57291234	-0.44331807	0.39390454	0.08741276	-0.49293026	0.59178305	-0.61288327	-0.3106246	-0.47783932	0.5382532	0.52953833	0.026680868	-0.015240351	0.17867672	0.024891473	-0.01966212	0.3082269	-0.2358408	-0.08158387	-0.29727927	0.7025815	0.5195195	0.33693647	0.114878766	-0.14727531	-0.14581859	0.1541769	0.27037984	0.1823193	0.45003602	1.1272318	-0.35244697	0.33812356	-0.20666029	0.1567868	0.21548642	-0.10486771	-0.07976112	0.52409863	0.35031632	0.59011686	0.19150543	-0.41300023	-0.013632025	0.22778629	-0.17525865	0.35533237	0.29779267	0.016387234	0.49681857	-0.0028111364	0.51627237	-0.07684305	-0.15685266	0.25519472	0.1403065	0.44305864	0.21973176	-0.1778308	-0.5765799	0.5852547	0.4458367	-0.009621986	-0.45584428	-0.3345988	0.017919773	0.051318157	-0.22475812	-0.033241734	0.1667846	0.5027336	0.81310284	0.025844604	-0.107715175	0.4454066	0.13984664	0.35059503	0.3737942	0.022856742	0.35352796	0.21913089	0.15055597	-0.33538905	0.4361804	-0.15189917	0.018318487	-0.18500663	-0.46344647	-0.36563396	0.5815761	-0.01538199	0.59304523	-0.01466293	-0.33798125	-0.31256944	0.2068052	0.106404714	0.55857515	0.7765351	-0.3424302	-0.6275871	-0.3146954	-0.4769419	-0.3681934	-0.46850684	0.50902915	-0.45000258	0.41783193	0.25205547	0.35358495	0.051912278	-0.19697562	0.23196705	-0.18509494	0.27061817	-0.36091253	0.061027765	-0.16200343	-0.271055	0.56720614	-0.0017474148	-0.025098745	0.61645526	0.40530637	-0.014556125	0.7244095	-0.23359326	-0.45906597	0.5194909	0.51178604	0.32073677	0.21169505	-0.9495684	0.13244137	-0.3890264	0.33822784	0.16930689
<http://saffron.insight-centre.org/rdf/relation/increase_to>	-0.0704533	-0.40063497	-0.5142158	0.368679	0.16325662	-0.25720763	-0.54585785	-0.3169006	-0.46373275	-0.51218724	0.78200287	-0.64809144	0.22954692	-0.45018947	-0.08943722	-0.74899656	-0.40673712	-0.26626936	-0.06474787	-0.59747946	-0.1578569	0.46345183	0.73525006	-0.19906202	0.7294702	-0.1381482	0.09486985	-0.29050237	0.2817688	-0.8007319	0.21607241	0.2946332	-0.08666819	0.1626363	-0.4709553	0.5325198	0.02844663	0.4060943	-0.055678178	0.07171473	-0.42028326	-0.31682935	0.58797884	0.3621845	-0.39500105	0.26661056	0.24498294	-0.21542883	0.73544395	-0.07341	0.2642645	0.41147885	-0.20129035	0.38172346	-0.101507135	0.23077849	0.3837692	0.22640792	-0.15531085	0.4062628	0.15268609	0.29777744	0.40016648	-0.6822662	0.38660806	0.086825214	-0.44955453	-0.29591405	-0.0013356638	0.62501115	0.603011	0.043043897	-0.5293426	-0.47254947	-0.536551	0.5558584	0.4940507	0.67408603	-0.354403	-0.20923191	-0.12069133	-0.2981696	-0.44842517	-0.42565936	0.30624384	-0.42034018	-0.55347663	0.37052965	0.06420318	0.19504806	0.50111806	-0.7394386	0.11098271	-0.58347005	-0.3619317	0.14878526	0.108193435	0.4913389	-0.38827136	-0.14866127	-0.4810038	-0.37927568	-0.12822695	-0.5230786	-0.41038692	-0.16539133	0.7788888	-0.3504503	-0.5806469	0.17590389	0.5185591	-0.34262958	0.068082005	0.4430064	0.020045739	-0.588225	0.24973182	-0.0358592	-0.035015956	0.54941916	-0.30650622	0.15310393	0.3431963	0.10869207	0.24129133	-0.1123559	-0.28123045	0.08175045	0.39811176	0.91418314	-0.27127305	0.26200762	0.13672218	-0.5528208	-0.12481573	-0.42471376	-0.3048285	-0.16355515	0.48965365	0.8302966	-0.093936406	0.4463667	-0.31521863	-0.5896296	0.53153616	0.04951341	-1.0649121	-0.349301	0.13234507	-0.3701283	0.47844434	0.13289209	0.30337048	0.5497795	0.1758575	-0.20797388	0.26426086	0.40974185	-0.4923513	0.014838043	-1.0358735	0.2820037	0.39466187	-0.45604107	-0.37320855	0.2752756	-0.0076038903	-0.07112943	0.23864415	-0.7200148	0.4525434	-0.5601404	-0.20894575	-0.100083634	-0.3198015	-0.24649838	-0.6652199	-0.36481357	0.036012344	0.35612574	0.46117792	0.36246935	0.57012534	-0.5009342	-0.61114144	0.29102328	-0.09381619	0.5093509	-0.15845202	-0.117088675	0.22995561	0.0177254	-0.6167256	0.6101508	-0.4969037	0.2637069	-0.26595464	0.06715168	-0.13032183	-0.3768751	-0.22487202	-0.45775002	0.23201504	0.5134975	-0.48849207	-0.41673082	-0.3518762	-0.15626772	0.016675325	0.020099543	-0.103791356	-0.012223865	0.46872407	-0.2767629	0.3185978	-0.38081488	0.450905	-0.25214052	-0.33133063	0.019403165	-0.30798945	0.36755207	-0.388379	0.54105866	-0.21986929	-0.30632502	0.41639063	0.110090666	-0.24120738	-0.4542775	-0.38875064	-0.09989316	-0.06876387	0.20021078	0.16189991	-0.0004179706	-0.5182861	-0.45848897	0.62596035	-0.0579448	-0.10546935	0.3995444	-0.18366978	-0.14269614	0.22136891	-0.5230477	0.27463937	0.119477555	0.35719132	-0.4159211	0.38601375	-0.07380955	-0.71746117	-0.077583045	0.26162955	-0.3047012	-0.34357733	0.4389243	0.15110482	-0.39138743	-0.106907055	0.04538943	0.16730225	-0.22218078	-0.44348252	0.17233641	0.39911154	-0.3724314	-0.17324318	0.9484615	0.30770513	-0.16435976	-0.1734026	-0.43093848	0.43777126	0.6540377	0.5538155	-0.12289062	0.52303916	-0.31434768	0.29896778	-0.19856042	0.25838575	0.45202205	0.4104957	0.39620826	-0.29637566	0.38127652	0.005788168	-0.08178862	-0.20281018	-0.097896755	0.83249825	0.10619586	0.6968006	-0.3194865	-0.5958093	-0.14010371	-0.43831098	0.23639993
<http://saffron.insight-centre.org/rdf/relation/increase_to>_reverse	0.4502786	-0.34086788	-0.021413147	-0.37618288	-0.4934208	-0.21173218	-0.53588355	-0.68945557	0.23948483	0.39145783	0.051253952	-0.21024878	-0.44683716	0.18538278	-0.024735965	0.00066363974	0.3493903	0.12301827	0.17170593	-0.15184152	0.03431627	0.100845106	0.45238483	-0.22400069	-0.20719807	0.35295928	-0.07847915	0.13997044	-0.20912863	-0.076747626	-0.030959379	0.008522523	0.31647852	0.067688905	-0.24270405	0.24694882	-0.048776686	0.021393534	-0.2091404	-0.43734297	0.14739802	0.33398244	0.21233453	0.3166694	0.1121724	0.07082256	0.21463251	0.31335643	-0.3424598	-0.21767534	-0.49708575	0.4007463	0.18105015	0.2096256	-0.13408937	0.1436846	0.34274384	0.4762183	-0.1234567	-0.4175853	0.38998944	-0.6185759	0.44850034	0.4807055	0.46191067	0.14173748	0.41413903	0.42742255	-0.11054257	0.40733975	0.24360144	-0.09625166	0.72142625	-0.399672	0.47632983	0.22855073	0.07775861	0.3335336	-0.2596852	0.36296493	-0.49232963	0.51905054	-0.31157002	-0.45380047	0.37245533	-0.33834156	0.48401755	0.16625479	-0.26082203	0.50937957	-0.23044668	-0.08560814	-0.3706999	-0.26274717	0.0849945	0.17562206	0.7703057	-0.56858647	-0.041644983	0.24529345	0.1563778	0.24398415	0.36886743	-0.22744343	0.5001382	-0.46494296	0.40854102	-0.034552407	-0.4073422	0.38058984	0.55500597	0.1647963	-0.18162037	-0.28083956	0.3544223	-0.0685287	0.01941927	0.45726165	0.39130676	0.10590524	-0.047020663	0.5073152	0.76851594	0.19126332	-0.47027525	-0.32196903	0.03621723	0.24142978	-0.37881827	-0.50068605	0.3040041	0.5276496	-0.4355061	-0.5286239	0.48621476	-0.21395902	-0.4908038	0.41480708	-0.21821535	0.066146314	-0.18800664	0.2894466	0.15686493	-0.39003584	-0.7830294	-0.2148335	0.33284995	-0.15791889	-0.04239426	-0.39162767	-0.31622222	-0.35832465	0.07669614	-0.6662206	-0.72758716	0.32229555	-0.44337308	-0.28736004	-0.088244446	0.42411792	-0.3360186	0.3796632	-0.3726522	-0.3757129	-0.5030714	0.34637627	-0.021414137	-0.6912639	-0.18903337	0.004985087	0.43899098	0.4808209	-0.37241748	0.38045824	-0.19015929	-0.25852695	0.5152815	-0.41618782	-0.19885184	-0.6705408	0.11981466	-0.47796488	0.46043223	-0.44851488	0.12494886	0.18434241	-0.20463957	0.45124167	0.5528359	0.31243315	0.5076332	0.7400604	-0.03861024	0.28053272	0.55823374	0.046035755	-0.41170478	-0.18676925	0.056909103	0.4980791	-0.2957282	-0.23600733	0.019414365	0.009861412	-0.9733616	-0.2031995	-0.7003171	-0.63352805	0.09424404	-0.2242865	0.072040774	-0.35046178	-0.04142135	0.47313035	0.6876899	-0.5395871	-0.2256204	0.48156995	0.39931035	-0.40976557	-0.39771274	-0.21206418	0.5016833	0.3956243	0.13862616	0.42829075	-0.12021399	0.41856456	-0.70567685	0.41879863	0.40021676	-0.017696243	-0.24366006	-0.5116468	-0.33938077	-0.33439484	-0.1356923	0.38927782	-0.06368656	0.52846265	0.030620737	0.19573522	-0.17256896	-0.2956542	0.97542703	-0.296458	-0.071377985	0.16293894	0.344204	-0.55724436	-0.06756689	0.48191956	0.4923392	-0.05274254	0.66065747	-0.5928613	0.12532452	0.30835497	-0.40748262	-0.122675076	-0.21353324	-0.26271778	-0.31414768	0.4080456	-0.3366868	-0.404574	0.054863468	-0.31396785	-0.3698698	-0.36494353	-0.5132235	-0.14381902	-0.03573644	0.36644146	-0.42046368	-0.121186055	0.060261376	-0.19409715	0.044286	0.4670649	0.70895153	0.034223113	-0.01895849	-0.13397333	-0.22863983	-0.6867207	0.11798976	0.3687417	0.2276071	0.25952047	0.23831673	0.06679468	-0.51604086	-0.15152894	0.18074434	-0.03882804	0.19585335	0.63554215	-0.3870816	-0.3319361
<http://saffron.insight-centre.org/rdf/relation/pay_with>	0.19250424	0.24058698	-0.41503215	-0.34327197	-0.026161704	0.03936239	0.0036515852	0.22636573	-0.34233937	-0.182388	0.29796076	-0.24732399	0.28673932	0.33104113	-0.38584983	-1.1919843	0.28828403	-0.15420987	-0.33108094	0.3895948	0.27712348	0.051650297	-0.10353005	-0.37998024	-0.29675022	0.4557511	0.10002762	-0.3810551	-0.13543613	-0.46436623	-0.06572934	-0.11568191	0.13331127	-0.43326375	0.19722055	0.005217346	0.50470537	0.46413267	-0.4358816	-0.3170487	-0.14223789	-0.20114732	-0.09299517	0.36061254	-0.44715723	0.044525694	0.38731122	-0.40145388	-0.13454033	0.49237752	0.52321166	0.22303542	-0.14875065	-0.66341954	-0.23857602	-0.4456899	-0.04348124	-0.3795044	-0.24377683	-0.4003477	0.8199103	0.115756534	0.06210995	-0.30493078	-0.1909459	-0.32807764	0.43583283	0.2315844	0.031168045	0.09719085	-0.5042279	-0.64717716	0.012694963	0.39715916	-0.45130628	0.30689007	-0.25357112	-0.24589072	0.13774155	0.5427267	-0.16105857	-0.23928276	0.24128924	0.42227656	-0.2807508	-0.42867994	0.08887949	-0.15440525	-0.12063453	0.5299373	-0.43295136	0.32440832	0.28789216	0.36939406	-0.35533735	-0.34373978	0.06439877	0.6290601	0.38140982	0.53634435	-0.5524029	0.060458153	-0.19848968	-0.30785367	0.00377634	-0.053210266	-0.27199635	0.38168898	-0.39595658	-0.049141172	-0.40463093	-0.4515155	-0.01633469	0.107901715	0.0738638	0.32520217	0.3710444	-0.36192194	0.34155473	0.11853151	0.23155394	-0.12718886	0.35773432	-0.04398287	0.8010385	-0.24056269	0.08977065	-0.37204397	-0.40463084	0.3281603	0.092524596	-0.0983623	0.08134744	0.24635588	-0.20129542	-0.093680374	-0.040083446	0.1476562	0.50508106	0.065942496	-0.25042114	-0.3969417	-0.07687858	-0.13966727	-0.047052544	-0.178076	-0.55751187	0.3285142	-0.32589656	0.058009353	0.013308262	-0.1940935	0.065638855	-0.4727771	-0.22557133	0.19383948	-0.00031807652	-0.040432338	0.40940815	0.36471894	0.6218923	-0.08389833	0.044057004	-0.11530129	-0.112647206	0.32342917	-0.32291248	-0.010413775	-0.30808753	-0.36448306	-0.22315316	-0.5475041	0.30143008	0.119969144	-0.38302717	-0.2652126	0.17725907	-0.16367489	0.13701612	0.05440562	-0.1307392	0.07402256	-0.42058483	0.5531352	-0.31636173	-0.22711611	0.22960144	0.34324154	0.4952282	-0.513653	0.46568748	0.5672519	0.39293486	-0.27544326	0.15801835	0.69637775	-0.26348442	-0.45355856	0.14788331	0.32123494	0.37452242	-0.026531002	0.6551532	-0.13969515	-0.53885543	0.40685907	0.42401963	0.044497818	0.03595023	-0.5464649	-0.039719637	-0.02840769	-0.5318362	-0.076999694	-0.26234213	-0.23357491	-0.037788305	0.7971267	0.47356376	-0.013814338	0.41697282	0.28250775	0.14551143	0.095390126	0.050353184	0.2849307	0.15613627	0.06688423	0.040962618	-0.46903983	0.1015273	0.3325013	0.4322385	0.49838796	0.34214783	0.05216584	-0.16282403	-0.09107778	0.3417813	-0.052608334	-0.6007509	-0.2897142	-0.1000251	0.48248163	-0.24292023	-0.14915644	-0.35637763	0.515363	-0.4051061	-0.70540285	0.35039082	0.27263406	0.27520245	0.6207609	0.41982827	0.41605115	0.28805238	0.40625507	0.523651	0.092558496	0.24346	-0.059958972	-0.030808046	-0.28928787	0.2648043	0.575875	-0.4431034	0.49389288	-0.46541524	0.010275743	-0.22062463	-0.27379358	0.1068219	-0.11768325	-0.062358093	0.46874052	0.116688065	0.44070107	-0.24261871	-0.49644846	-0.7423815	0.057099365	-0.5252562	-0.118925594	-0.19219758	-0.49872792	0.4823216	0.2531928	0.18876272	0.20904934	-0.4825986	-0.78884155	-0.80508816	0.18215482	0.15091546	0.10818869	-0.5400079	-0.6989242	-0.036379505	0.009968167
<http://saffron.insight-centre.org/rdf/relation/pay_with>_reverse	-0.45984674	-0.12088846	0.095603995	0.2520662	-0.2527563	-0.17559321	-0.29838562	-0.15349598	-0.2712784	0.4505081	0.41299745	0.41027847	-0.4423498	0.039093923	0.5528168	-0.38896298	-0.38912055	0.3496153	-0.1356823	-0.17827138	-0.23574434	0.13773759	-0.33853558	0.25080842	0.12787028	0.84604436	-0.26213586	0.24944091	-0.26015413	0.0722924	-0.45031336	-0.14620495	0.25058514	0.0410784	-0.67766815	0.5390934	0.49029082	0.3505898	0.263844	0.088157885	-0.17120257	-0.14106323	-0.38685167	-0.4778435	0.4688808	-0.42133301	0.32423136	-0.31892896	-0.47569683	0.354352	-0.47631606	0.5268832	-0.15713364	0.37673035	-0.18942578	0.037008088	-0.38918367	0.17826034	-0.11113276	0.31734902	-0.3267038	0.27505124	0.30202848	0.5046297	0.37281215	0.4229639	0.4966774	-0.28017458	0.15712419	-0.43221396	-0.35262173	0.38334545	0.030840026	0.66431916	-0.33476543	-0.38151842	0.26948312	0.073274374	-0.28182366	-0.12686108	-0.39951074	0.2492186	-0.4429333	0.18757048	0.015369178	0.26371968	0.45504868	-0.32294843	0.4342027	-0.2658954	-0.22336617	-0.6535793	0.53185624	0.24846248	-0.3758335	0.3472087	-0.21713226	-0.54134893	-0.28425834	0.53348225	0.044588797	0.5260621	-0.26107526	0.5541059	-0.17875774	0.1712765	0.19949476	-0.016016629	-0.07007403	0.284559	0.009103923	-0.21918151	-0.3866154	0.32652384	-0.5325801	-0.2227912	0.4666262	0.2739975	0.06727202	0.3097659	0.56910896	0.28313094	-0.021132778	-0.5398682	-0.17580718	-0.5330283	0.5340599	-0.08660485	-0.43745562	-0.4797866	-0.027905151	-0.4572846	0.4117937	0.39912257	-0.55765516	-0.45396712	0.18333435	-0.017934129	-0.16931722	-0.30101556	0.348242	-0.13926096	-0.21614596	-0.35195228	0.42488933	0.4990589	-0.30899784	-0.2983692	0.13730824	-0.24839328	-0.043152876	0.3292594	-0.2327254	0.60895705	-0.35389847	-0.1757746	-0.2595773	0.5875217	-0.22191584	0.57552904	-0.5825919	-0.08877157	-0.28319284	-0.18023488	-0.3474005	-0.5117406	0.15286222	-0.42573026	-0.4308677	0.33555645	-0.277929	0.2284515	0.31630325	0.42234325	-0.34417993	0.13044012	0.2961865	0.48626727	0.0688395	0.50150687	0.27913985	0.35441628	-0.07924512	-0.27263126	0.35991076	-0.32096335	0.16171385	-0.40757507	-0.30654728	0.26004243	0.124810696	0.07188737	-0.34594366	0.2221244	-0.42855945	-0.4382656	0.5283832	0.22598921	-0.34122753	-0.17231289	0.20520608	0.023909837	0.4593398	-0.29846552	-0.20096059	-0.10605301	-0.11714099	-0.21731338	-0.15131523	-0.19025233	0.15591124	0.5557049	-0.43879265	0.106106274	0.49916443	-0.11498653	0.5183293	0.1330252	0.6100852	0.50146234	-0.6342947	-0.3962451	0.21445262	0.34358522	0.2917521	-0.26442438	0.042854816	-0.56074125	0.37040383	-0.43644083	0.08108163	-0.3225288	-0.11517268	-0.2045269	0.27376297	-0.083122715	0.3317108	0.111283995	-0.31222805	0.20800102	-0.37562925	-0.4366362	-0.41581947	0.3069863	-0.3303651	0.09996086	0.5103637	-0.27697185	0.50703305	-0.18208341	0.16386683	-0.20214944	0.10848062	0.37303337	0.314258	-0.20437533	0.21512443	-0.23040129	-0.45377424	0.41519982	0.25759017	-0.12657306	0.3863162	0.5756419	-0.31839624	-0.3600945	0.33682323	-0.32618007	0.35052165	-0.186614	-0.32231414	0.27075005	0.3122843	-0.12346773	0.31337845	-0.41098648	-0.35534492	-0.35827234	0.11126982	0.3627189	-0.3927717	0.14823195	-0.38531962	0.17376725	-0.4489336	0.1635508	-0.32803616	-0.039424993	-0.13987279	-0.24812572	0.072147146	0.16337857	-0.07755398	-0.2952609	-0.26152125	0.21661472	-0.1223525	0.093474284	0.30472016	0.24021651
<http://saffron.insight-centre.org/rdf/relation/tax_at>	-0.4328274	0.2893777	-0.7831371	0.19941552	0.19446366	-0.23408252	-0.08746481	0.80508834	0.4397531	0.3171829	0.25126985	0.24253687	-0.34036195	0.21916854	0.6963412	0.6967421	-0.26210967	0.2101149	-0.36954227	-0.13791245	0.041444425	-0.4019732	0.2142338	-0.685683	0.33539996	0.22324795	-0.22239909	0.37652355	-0.5078748	-0.25137064	0.3361217	0.05051006	0.28581798	-0.3641597	-0.3001982	0.24408938	-0.040996414	-0.38079855	0.14756498	0.09454174	-0.43089774	0.052071217	0.5755019	0.3218639	0.04775757	0.48790997	-0.17501651	-0.40075576	-0.40742233	0.20816305	0.3555523	0.28056017	0.2512558	-0.591847	-0.10447134	0.3162056	0.32139987	-0.08487573	-0.42216694	0.6613033	0.62401253	-0.68663263	-0.089847125	0.14240761	0.68121445	-0.2906307	-0.8455183	0.31641415	0.17416534	0.31824335	-0.5817237	0.12031478	0.110615574	0.2706378	-0.3895756	-0.56446284	-0.19263484	0.39611346	-0.17837562	0.3496773	0.17091383	-0.5003667	0.8924907	-0.18783593	-0.49314305	0.3693145	0.27392974	-0.3812614	0.30650368	-0.13292415	0.34206244	-0.20165591	-0.07201402	-0.11881016	-0.3371797	0.23292111	-0.3057354	-0.00050918787	0.32313633	0.6711757	-0.23461269	0.46879947	-0.19670928	0.11714574	-0.10664914	-0.26924175	-0.039023817	0.16967455	-0.525855	-0.1677237	-0.43803778	0.42920908	0.20862372	-0.3325891	-0.100637026	-0.59201485	-0.5350353	0.15805405	-0.37843606	0.29872945	0.21981862	-0.20868193	0.5582109	0.44042593	-0.38918495	-0.15594998	-0.18282989	-0.16172838	-0.36843884	-0.13416259	0.2542235	0.42701453	0.45734373	0.54681104	0.13265613	0.2410324	0.060895804	-0.30525765	0.15182462	0.54245144	-0.44745246	0.07211896	-0.44355372	-0.2232234	-0.094015144	0.054380976	-0.029624727	-0.0035727005	0.16207495	-0.4208646	0.013990358	-0.39550394	-0.31008455	0.40379757	-0.36077064	-0.1806773	-0.18856226	-0.27645516	0.2030115	-0.2689088	0.49547338	0.3382617	0.33468094	0.30024835	-0.08371191	0.23345679	0.3880921	0.22763166	-0.62193596	0.3980378	-0.1179286	-0.043415226	0.45646274	-0.20600544	0.3540724	0.29581964	-0.5147739	-0.24381429	0.6485301	-0.3076897	0.08317124	-0.36615887	0.20479605	0.010946682	-0.59835047	0.23487784	-0.17435595	-0.41828167	0.80149376	0.464869	-0.09550867	0.2630238	0.4574972	-0.36862582	-0.25240746	-0.35107136	0.320168	-0.20775525	-0.20940585	0.11384625	0.24705726	0.3282968	0.079246454	-0.11345289	-0.22630629	-0.26912275	-0.39564005	-0.5226487	-0.34868577	0.20716958	-0.34389505	0.09775362	0.37966293	-0.12827924	0.42354208	-0.33718216	-0.24517913	0.1605337	0.08944949	0.38800707	0.19049934	0.28587493	0.5796535	0.3888703	-0.43612263	-0.4224772	-0.18242247	0.37707892	0.39349687	-0.4363121	0.363499	-0.2280739	0.19954473	0.5106794	0.2824742	-0.15937392	-0.37947014	-0.4682148	-0.2739388	-0.01995892	-0.42525622	0.4395252	-0.22093238	-0.38126403	0.40235788	0.026066504	-0.4490929	-0.27770737	0.3427051	-0.29366007	-0.1268385	-0.23310353	-0.26775587	-0.11747385	0.56782174	0.051670544	0.15939277	0.14553684	0.408639	0.4261754	-0.4650853	-0.40712616	-0.48749945	0.4814363	0.14398822	-0.32315964	-0.04489541	0.22411557	0.3343909	0.6718694	0.36440262	-0.32381624	0.51718545	0.5108406	0.57735264	-0.3061098	0.020533716	0.4162838	0.16400377	-0.37062588	0.37235382	0.30994007	0.5187952	-0.019905098	-0.15018047	0.37837225	0.16962409	0.026107542	0.44552222	0.4361779	-0.2118985	-0.33481425	0.4542893	-0.1679467	-0.13666087	0.17460933	0.49281543	-0.3486274	-0.34672815	-0.27477005
<http://saffron.insight-centre.org/rdf/relation/tax_at>_reverse	-0.14937319	-0.24522702	0.22209363	0.44697586	-0.45915684	0.25324425	-0.2899919	-0.3834989	0.49207374	0.3165527	-0.6815923	-0.29877937	-0.22217031	0.20390329	0.12738521	0.16999242	-0.13161257	-0.24376786	0.26667094	-0.42580837	-0.38150394	0.40570924	-0.36852372	0.5006197	0.113183506	-0.11921327	-0.35472164	0.00987973	-0.23899405	-0.22855218	-0.5653173	0.08556001	0.024621064	0.38246244	0.3878949	-0.13344376	-0.32522228	-0.030674063	-0.17567222	0.2608771	-0.53305346	-0.33277518	0.2239493	0.21634078	0.8590108	-0.31842345	-0.47973037	-0.38042068	-0.0099646	-0.32732067	-0.30058366	-0.25087053	-0.3116861	0.09440099	-0.17965454	0.42791834	-0.26152602	-0.36826673	-0.784216	-0.27426514	0.73709077	-0.32923248	-0.33706057	0.040954195	0.22244601	0.057847086	-0.45891836	-0.1500169	0.1549025	0.34762907	-0.3824311	-0.37547	-0.33063686	-1.0302621	0.2706911	0.35137123	-0.060542908	0.28623772	0.38785484	-0.30451295	-0.31618932	-0.16886032	0.42245275	0.28598148	-0.5116546	-0.273888	0.27612343	0.5723143	-0.17837043	-0.18327917	-0.40851283	-0.24137452	-0.16648836	-0.26210803	0.23858069	-0.054205757	0.24758571	0.41741365	-0.022667062	0.26529667	-0.13774385	0.47714376	-0.24179122	0.15714104	0.5099411	-0.38552827	-0.21508761	0.30144173	-0.23728502	-0.3701839	0.27974352	0.14010732	0.2553223	0.4265807	0.072532356	0.11710289	-0.51152295	0.41519395	-0.15356776	0.29099217	-0.4053044	-0.22073574	0.3786033	0.43421018	0.0984718	-0.25643283	0.26568115	-0.10515033	-0.5584751	0.21984528	-0.32224202	-0.4743088	0.36865443	-0.1916864	0.3334731	0.40241426	-0.29613465	-0.0058350144	0.26685092	0.12341692	-0.43896657	0.51076376	-0.02110542	0.13169307	0.26161295	-0.21130446	0.20004556	-0.29036033	-0.3055362	-0.3914826	-0.36934054	0.117488444	0.21652794	0.29142582	-0.3888121	0.49916708	0.26286694	-0.36806613	0.32428262	0.1018954	0.36537382	0.43038338	0.29436612	-0.31849107	0.6150419	-0.0079774195	0.3348999	-0.23301098	-0.50764525	-0.4184542	0.03304644	0.32551184	-0.15933725	0.33438075	-0.25358927	0.18886717	-0.59913754	-0.33343148	0.403483	-0.3355592	-0.09930551	-0.4085397	0.2694755	-0.2738637	-0.41393524	-0.36036047	0.20906658	-0.54001987	0.055492505	0.057228442	0.749789	0.1763681	0.2227971	-0.4033382	-0.36663124	0.28048757	0.32047	0.24670266	-0.31484655	-0.49799323	0.18525937	0.23769516	-0.13052261	-0.37820068	-0.3438595	-0.17985812	0.29435843	0.24247824	-0.3048119	0.2612968	-0.51414067	0.10202879	0.27895156	-0.2820851	0.17702104	0.110282	-0.27903065	0.23267236	0.35181755	-0.31304583	0.45298514	0.26656052	-0.45289952	-0.44169468	-0.3448424	-0.11490512	0.23297933	0.19539541	-0.30305737	0.419784	0.41794604	-0.16679123	-0.17745352	0.08648136	0.109271936	0.338334	0.41056877	-0.25146237	0.32276845	-0.03269418	-0.1369266	-0.17701717	0.38824236	0.44281593	0.16255528	-0.41964838	-0.22726785	-0.27638257	-0.2830908	0.26053524	0.14727116	0.5666931	-0.07191135	0.3367326	-0.3136035	-0.7299572	-0.28781992	-0.15685089	0.36287624	0.39380702	-0.31746048	-0.27241462	0.24761032	0.19357528	-0.18334714	0.23304234	-0.36821958	-0.20135365	0.2518961	-0.08068899	0.2319965	-0.04715374	-0.31829438	0.15731777	0.12167032	-0.15748614	0.24238765	0.14320138	-0.2030581	0.602906	-0.034803413	0.73384035	-0.007894194	-0.10942617	-0.6775337	0.27781633	-0.29257712	-0.33036777	0.34429696	0.11404532	0.28399158	0.33901954	0.25285363	-0.33024284	-0.260456	0.45278004	-0.3638298	0.774706	0.3071189	0.31055018
<http://saffron.insight-centre.org/rdf/relation/tax_because>	-0.49820682	-0.11629818	-0.56318665	-0.6346109	-0.32422042	0.4281449	-0.6061898	-0.062356554	0.759457	0.41532013	0.10904236	-0.4030604	0.124014795	-0.34397504	0.1017419	0.05603364	0.50617886	-0.118920304	0.2762353	0.58503217	-0.0065532345	0.39956406	-0.65256363	0.8926876	-0.41156304	-0.4274665	0.49054453	0.033357892	0.17854121	-0.40557173	-0.6016643	0.5749785	0.066694304	-0.5091746	0.040240064	0.032191873	0.44469434	0.43039107	-0.0458424	0.268597	-0.31021845	-0.27138546	-0.5235565	0.10479502	-0.032991443	-0.48673043	0.39655846	0.16608465	-0.40825805	-0.053389564	0.63027877	0.2911922	0.1583835	0.2614958	0.3823968	0.23386984	0.16944583	-0.4103161	0.6239433	-0.6971034	-0.6633748	-0.46599236	-0.44203478	-0.6247271	0.43465275	-0.070347965	-0.5654553	-0.5853829	0.45825303	0.42304403	-0.46856105	-0.25619635	-0.102161996	0.48181286	0.21504496	-0.270996	-0.36671993	0.48124534	-0.1276738	0.4071911	0.34748834	-0.48243174	0.48909578	0.6482478	-0.13705924	0.28216496	-0.6333604	0.11175111	0.3128047	0.38058197	0.54276484	0.6411323	-0.5076335	0.09616306	0.46018752	-0.2651823	0.4812335	-0.2045017	-0.43531403	0.3674921	0.3721681	0.23760043	-0.38045943	0.27484316	0.42257562	-0.1013983	-0.046475437	-0.29754126	-0.21563317	0.22002669	-0.46012914	-0.52643	0.43910876	-0.2286271	0.05858775	0.49471745	0.027814334	0.80435205	0.24545094	0.41555816	0.0334672	0.515324	0.31314674	0.44217658	-0.44457918	0.5749916	0.56033504	0.14030686	0.33816588	0.5296853	-0.42180142	0.37423623	0.64278483	-0.33438247	0.39142814	0.32017863	-0.3251223	0.7402118	0.2814788	0.20003298	-0.047608424	0.052411325	-0.92646337	0.028753646	-0.17270592	-0.42029783	0.643263	0.33283025	-0.11701128	0.52675503	0.6583107	-0.61429983	-0.4830407	0.68888897	0.33962482	-0.023210358	0.51499146	-0.28235617	-0.10276023	0.39515582	0.14493224	-0.5445054	-0.0046627377	-0.10355706	0.48061806	-0.788678	-0.57054144	-0.55976427	-0.63087684	-0.103149444	-0.063825324	-0.28424796	-0.41385746	-0.23722969	0.5101451	-0.8309061	0.58679116	-0.3104206	0.4618268	-0.19749466	-0.4811736	-0.04777474	-0.110309675	0.6538695	-0.5830789	0.38256323	-0.13006118	-0.38898155	0.32853138	-0.53968745	0.47894883	8.123354e-05	0.07465861	0.007900168	0.61044765	-0.6278038	0.12108267	0.5147247	0.19271925	-1.0453751	-0.07407385	0.36385787	0.54547864	0.11559742	-0.38293302	-0.1797004	0.019487428	0.2823208	-0.278777	0.19006312	-0.40107974	0.35818967	-0.70115364	0.26928985	-0.29342103	0.028154662	0.26097518	-0.30944425	0.19285236	0.2904067	-0.21822815	-1.375005	-0.08370776	0.50171554	0.5248078	0.14407797	0.68469036	0.28236368	-0.29602316	-0.57893574	0.0291485	0.1896793	-0.3844624	0.4499209	-0.40699247	0.3598086	-0.57652605	0.046763647	0.017222824	0.025187016	0.39394623	-0.34324965	-0.011231216	-0.33686736	-0.5439636	-0.56530076	0.19968657	0.49251893	0.023312472	1.2051613	0.1659151	0.49646175	-0.41810596	0.5988626	-0.31395262	-0.2604289	0.45055595	0.289163	-0.04924453	-0.27928618	0.7135779	-0.114083916	0.04898342	-0.002075491	0.06909555	-0.07263138	-0.1960848	0.05262026	-0.05293582	0.38548604	-0.16983369	-0.3295069	-0.24937698	0.42699873	0.44602516	0.4258392	0.26692525	0.2342699	-0.32212812	0.05960904	-0.44510743	-0.04491605	0.17623396	-0.4705505	0.31012163	0.17045042	0.22600546	0.57317966	-0.18718383	-0.37290472	-0.35122463	0.0493592	-0.42441136	0.4955568	0.45793298	0.1729766	0.16461706	-0.29933563	-0.1415604	0.27992627
<http://saffron.insight-centre.org/rdf/relation/tax_because>_reverse	0.2762564	0.3244558	0.24360114	-0.04502261	-0.6460014	0.17049004	0.0061921133	-0.2946307	-0.07043036	0.12045991	0.38665792	0.47149324	-0.5487907	-0.44964397	0.18086661	-0.4486477	-0.3883174	-0.25501478	-0.37403712	0.05141229	-0.30911505	-0.3265642	-0.47455218	-0.68497735	-0.14652187	-0.34276745	-0.01694999	0.13808866	-0.1856839	-0.15628035	-0.48273686	0.3054464	-0.46500874	0.05285451	-0.40166426	0.41885814	-0.21060233	0.552889	0.1887211	0.016954694	-0.57157654	-0.12518328	0.11835937	0.15228301	-0.080899514	0.057389125	0.098167464	-0.140051	-0.023670077	-0.37971675	0.43380657	0.7041077	0.08603669	0.28791463	0.267653	-0.30822554	0.32370478	-0.19313908	-0.55805606	0.82365614	-0.3146689	-0.08845947	0.029449899	0.2706249	-0.15711623	-0.17089361	-0.4412323	-0.38288447	0.7236208	0.4197894	-0.049712952	0.20245197	-0.21760625	-0.30965036	0.11659551	-0.3220297	-0.08639816	-0.34213543	0.24381389	0.05417448	-0.35863897	0.2332501	-0.69919467	0.3300014	-0.22861026	-0.38028142	-0.25873047	0.1943028	-0.41784093	-0.41671363	0.161366	-0.5106572	0.05612938	-0.37243655	-0.34005985	-0.2544914	0.034950357	0.33217338	-0.29385653	0.6148041	-0.0045150616	-0.3212615	-0.44681785	-0.24404533	-0.4014816	0.37989575	0.3700843	0.35910562	0.15713675	-0.5344421	0.3032437	0.44310796	0.61219776	-0.38344833	-0.38901502	-0.19320695	-0.12199792	-0.33888796	-0.22446324	0.34986094	0.08014144	-0.11142241	0.3511725	0.11440308	-0.0675397	0.30200574	-0.21529354	-0.7694189	0.15397894	-0.38255146	-0.6121947	-0.500782	0.30357355	-0.45315045	0.11977025	-0.19872487	0.25561485	-0.33515662	0.2827542	-0.23682821	-0.4174712	0.33237454	-0.6264792	-0.5421981	-0.7659531	0.35618564	0.4972681	-0.45041233	-0.3215599	-0.2551149	0.4401616	-0.26719067	0.21198896	-0.23148637	-0.0064264666	0.12325405	-0.14822413	-0.4072608	-0.34180441	-0.40901822	-0.38918674	-0.44878003	0.0071834745	0.30699238	0.16612364	-0.4743257	-0.24375151	-0.49554068	-0.35165095	-0.32649708	-0.3287007	0.09267856	-0.2720084	-0.37708724	-0.32983676	-0.12006048	-0.29456404	0.30962574	-0.37316626	0.31067047	-0.20233311	-0.55036294	0.3345916	-0.7526042	-0.48112407	-0.6461168	-0.32681188	0.2888256	0.4139356	-0.1405869	0.35814494	-0.10069098	-0.41294718	0.12349865	-0.02136418	-0.33923987	0.11756585	-0.20013621	0.39562708	-0.30551362	-0.38289118	-0.2874406	0.06873807	-0.46753812	-0.67653686	-0.18983532	0.21817625	0.6606796	0.14032927	-0.40835115	-0.4569438	0.140905	-0.121032275	-0.5007931	-0.7299594	0.4501411	0.26978657	0.46727332	-0.31515405	0.49942064	0.16237833	0.2925034	0.17849354	-0.1956103	-0.29280382	-0.001070332	-0.16855083	-0.048196785	0.25594932	-0.52431214	-0.5401309	0.35546988	-0.27274495	-0.22079778	-0.4325476	0.18456854	0.34323174	-0.2852486	0.31390575	0.09766758	-0.33345088	-0.022190245	0.22013792	0.33091855	-0.23468961	-0.2580396	-0.38956162	0.1701851	0.25826505	0.16416375	0.009543136	-0.10579591	-0.028129512	-0.275584	-0.33159617	0.07749307	0.28020108	-0.35285097	0.44182342	-0.67622256	-0.2590751	0.0046787746	0.34885883	-0.15490592	0.2442838	-0.20853576	0.21464352	0.45498124	-0.37958083	0.22552472	-0.57733303	0.39387342	0.2580545	0.27263388	-0.12451764	-0.42927018	0.14659359	0.0064928774	0.4420236	0.23749614	0.3991341	-0.05296951	0.39495924	-0.13750117	-0.30265766	0.2724266	-0.27023083	-0.061736483	-0.070678994	0.60606134	-0.49768254	-0.47212264	-0.03871871	0.09455853	1.1288635	0.3629955	-0.24918886	0.12878472	-0.23382282	0.34214908
<http://saffron.insight-centre.org/rdf/relation/tax_with>	0.13354474	0.34122622	0.16136366	-0.2829075	0.1820715	-0.4351913	0.6288954	0.29836467	-0.07465833	-0.41288096	0.48792565	0.437439	0.10824936	0.0035593512	0.056486603	-0.15658791	-0.037499398	0.6458002	0.26770955	-0.4564358	-0.33482912	0.067332834	0.15160094	-0.3666604	-0.17822179	-0.018684912	-0.2492549	0.35103694	-0.14941739	0.4306812	-0.18528628	0.1269041	0.11708	0.26862314	-0.53501964	-0.40096217	0.57885337	-0.44863382	-0.34393275	-0.42073807	-0.41315576	-0.32628107	-0.15854011	0.6104863	0.013933027	-0.25265756	-0.38714027	0.41760233	-0.4423926	0.466406	0.27733102	-0.048624013	0.10100569	-0.33955562	0.42243078	0.30038834	0.1358519	0.42236343	0.43322888	0.5222709	-0.06432875	-0.24382381	-0.27771413	-0.38468927	-0.07493149	0.110833354	0.16030362	0.43259338	0.7010095	-0.5585211	-0.44898146	-0.108940795	-0.12003948	-0.48819736	0.47131878	-0.1851594	-0.10105208	-0.26105154	0.22859274	-0.15248436	0.45272902	0.005288524	-0.2999031	-0.23006758	0.42645818	-0.5986171	-0.26036942	-0.5134245	0.2626609	0.0582825	-0.25229305	0.37979653	0.015792357	0.37518325	-0.09825605	0.17428711	0.39425346	0.27118662	-0.02429464	-0.2745281	0.46483	0.1778589	0.14216295	-0.24369657	-0.09058915	0.47141752	-0.5569091	0.30805394	-0.20845948	-0.512407	0.2395503	0.033866145	0.31096533	-0.15739621	0.21433148	-0.28237578	-0.17796858	0.23307607	-0.15631458	-0.62625945	0.56613415	0.073865615	0.10092038	-0.27559555	-0.65116173	0.47515705	-0.10634683	-0.26442719	-0.49227455	-0.46122608	-0.09982163	0.41815668	0.08064219	0.15759541	0.32250234	-0.052038793	0.40182024	0.34650964	-0.17032096	-0.30206725	0.8188287	0.19300002	-0.469494	-0.083969206	0.29328936	-0.0008038649	0.25693002	0.15061182	-0.42315623	-0.2833047	0.28955248	-0.44756296	-0.20617099	0.059464164	-0.45481706	0.2306857	-0.5145492	-0.3444821	0.23931074	0.13078834	-0.018619658	0.042488877	0.45212674	0.26158974	0.12030581	-0.22461134	-0.12819053	0.20540495	-0.47510767	0.3869945	0.54198444	-0.2630871	0.19721629	-0.18707475	-0.29796138	0.10691025	0.64826167	0.3504692	0.24016123	0.30113286	-0.5476242	0.34881973	-0.42132667	-0.31505218	-0.12902729	0.2769088	0.08697716	-0.3408285	0.116246305	0.37879145	-0.03412519	-0.16683367	0.1698305	-0.43323365	-0.27347353	0.008542697	0.20430273	-0.1035894	0.52683884	-0.18900457	0.60015875	-0.40227047	0.022481913	-0.27996057	0.18279904	0.35975185	-0.3488306	0.284677	-0.37225083	-0.5703522	-0.326986	0.31604862	-0.07508966	0.37581387	0.64657164	-0.3724424	0.25774	-0.32863	0.1471288	-0.09698232	0.18527468	-0.13784724	-0.19506586	-0.06618656	0.17041855	-0.3154539	-0.036985848	0.35409686	-0.19821087	0.3634012	0.036547944	-0.14980091	-0.22608788	-0.10246249	0.23897448	0.53800094	-0.059883542	0.7794083	-0.32603157	-0.11694534	0.31957054	-0.34837556	0.46701965	0.38711306	-0.020627962	-0.23640016	-0.48574007	0.2925013	0.55216557	0.38015828	-0.4189233	-0.23082924	0.24959035	-0.028153919	0.3825316	0.2530359	0.32346487	0.20840155	-0.30139005	-0.6545883	0.45560145	0.5268104	-0.016727783	0.28871536	0.24218018	0.18631715	-0.33888423	0.36572245	0.27992532	-0.55828786	0.33393753	-0.34305468	-0.5139697	-0.02421931	-0.14608929	-0.26807794	-0.20761737	-0.13424796	-0.6464017	-0.5214729	-0.3437955	0.48974475	0.57261485	0.32492268	-0.015519884	-0.035001133	0.39592704	-0.22706383	-0.3676416	-0.56136876	-0.32736072	-0.3231126	-0.15920866	0.37809604	0.49155757	0.09979777	0.41031778	-0.3617642	0.23284315	0.020512331
<http://saffron.insight-centre.org/rdf/relation/tax_with>_reverse	0.06534905	-0.4175532	-0.33966696	-0.0065506324	-0.19906981	-0.7148355	0.42220947	0.08920248	0.15237303	0.5834495	-0.2995367	-0.5583273	-0.51666296	0.10811456	-0.026120057	0.16615227	0.14531897	0.076872416	0.097922206	-0.5621525	-0.05571498	-0.23929618	-0.5248068	-0.23863773	0.53944653	0.3809104	0.33199075	-0.51229185	-0.6320619	0.4280923	-0.38368854	0.087638445	0.2607407	0.15121	-0.39488617	-0.48415738	-0.3153617	-0.044029564	-0.4556091	0.22856347	-0.18431303	0.2212508	0.33759415	0.34191194	-0.4533113	-0.45770225	-0.18404715	0.47362274	-0.06906132	0.34533057	0.04908901	0.5853934	-0.42475358	-0.4683948	0.559903	0.31265014	0.4700491	0.21477327	-0.5493981	-0.10516516	0.15343592	-0.56128204	0.1097485	-0.04684036	-0.61652493	-0.21743707	0.094647355	0.008024259	0.22904113	0.111343294	-0.25247622	-0.37553528	-0.09465937	0.113361865	0.21353403	-0.2354216	0.27120492	-0.08780533	-0.25090495	0.1614484	0.5922737	0.40116477	0.3487025	0.47512463	-0.100384586	-0.17172313	-0.51240414	0.0513176	0.4706165	0.24802397	0.26432714	0.19433884	0.0819312	-0.5032771	-0.58536476	-0.0551273	0.44798598	-0.4449889	-0.25676137	0.55919075	0.17684433	-0.046208307	-0.72828656	0.11201384	-0.42450646	-0.505832	0.7506088	-0.117354274	-0.27061078	-0.5371006	-0.051114667	-0.32264948	0.6334177	0.017979076	-0.45696837	-0.01771636	0.2274129	-0.44455117	-0.60058653	-0.45014814	0.42483985	0.44247952	-0.25704625	0.6614991	-0.49994373	-0.10730039	-0.05720445	0.49856934	-0.2790112	0.05432654	0.08768087	0.51398814	-0.6120775	-0.63087004	-0.28602004	-0.31985456	0.49756458	0.18904297	-0.47050512	-0.11248363	-0.054888565	0.5727459	-0.23608303	-0.35203627	-0.1586067	-0.5695363	0.5106281	-0.44359994	0.6390291	0.010578191	-0.34889194	0.4352839	-0.30994534	0.5125605	0.04360771	0.57766104	0.22902384	0.08351514	-0.36086568	0.29429972	0.1131449	0.22525042	0.5149318	-0.46208408	-0.37026462	-0.59203917	-0.47475556	0.46687937	-0.3534376	-0.4151699	-0.6704043	-0.21682493	0.676819	0.46423694	0.38876057	0.192722	0.6875582	0.053103976	-0.4256914	-0.49434486	-0.19573739	-0.11248808	0.49379236	-0.4072004	0.6999404	-0.04489569	0.6599691	0.42656717	-0.16709799	-0.417907	-0.28808877	0.31977108	0.05187317	0.4295115	0.43586275	-0.13647333	-0.03140403	0.571505	-0.0689099	-0.1624105	-0.79795027	0.11715502	-0.12038405	-0.3392419	0.3308656	0.5285509	0.1252444	-0.6410466	0.09113826	0.41398424	-0.46022126	-0.07990716	-0.57517934	0.04791695	0.0745091	0.588102	0.45966738	0.59101295	-0.58132774	0.39852753	-0.14752187	-0.010661405	-0.36457956	0.46232036	0.56483126	0.5480908	-0.84347785	0.081857465	0.46183142	-0.537478	-0.180229	0.2746886	0.5508157	0.2030251	0.049761318	0.58083534	0.16675992	-0.6308339	-0.49549183	0.44181445	0.3074453	-0.091125116	-0.20462936	0.77882326	0.3319732	0.40199637	-0.35911733	0.4781449	0.43944913	0.09035556	0.1519762	-0.08143703	0.52332056	-0.1394871	0.18914093	0.021616492	0.54741186	0.51506263	-0.12415727	-0.014701822	0.15747836	-1.2290431	-0.047567803	0.25972158	-0.19719228	-0.57126135	0.41078535	-0.29496288	-0.5640178	-0.24919787	0.13802496	0.32503235	0.52475077	0.22367026	-0.013290736	-0.78078794	0.09487739	-0.45005497	-0.10581969	0.25639644	0.17822003	-0.32418063	0.033188842	-0.35812557	-0.5444123	0.27919322	-0.2354396	-0.18942265	0.3647049	-0.03810238	0.22984278	0.19901223	-0.04986949	-0.14730258	-0.28597224	0.62562144	0.79866916	0.76477826	0.3838935	-0.4194312
<http://saffron.insight-centre.org/rdf/relation/transfer_into>	-0.37835228	0.28592888	0.13013642	-0.3502791	0.33883297	1.355484	0.6336503	0.26055095	-0.24717414	0.40873706	-0.13994294	-0.3713027	0.34266064	0.09513346	-0.29156503	-0.42277032	0.40555605	-0.22319604	0.31409955	0.32511732	-0.47719526	0.12595782	-0.22016217	-0.246461	0.16882487	-0.27171966	-0.19825502	0.6257557	-0.40935585	0.079340436	-0.26552698	0.50835174	0.4894438	0.32607576	0.22602361	0.3529297	-0.7176499	0.25030568	0.35692483	0.21807583	0.3040286	-0.24688323	0.18841152	0.08196878	-0.2561307	-0.28780496	-0.38988298	0.52746564	0.22547838	-0.31795394	0.2498011	0.5358125	-0.25205356	0.59251785	-0.1415462	0.2766242	-0.17826046	-0.1418783	-0.10466544	-0.43207362	-0.04289308	0.3796684	0.32993457	-0.40901613	-0.44644433	0.21523766	1.1990274	-0.32122165	0.2657198	0.23662981	-0.19967043	0.20052937	0.07940397	0.72011274	0.34805793	-0.24490651	-0.1177979	-0.27291209	0.23975027	0.22703892	-0.51353914	-0.3701596	0.16729163	-0.34049895	-0.3253324	0.42220882	-0.46665117	0.52750117	-0.121348135	-0.2017007	0.269639	0.31386593	0.28359398	0.4436137	0.21885149	0.29132771	-0.1670771	0.095157675	-0.28180954	-0.34890038	0.24743392	-0.13473326	0.35079807	-0.12986496	0.20137015	-0.33591402	0.4432475	0.17014752	0.37662628	0.20805907	0.09543222	-0.24423043	-0.42989838	0.30082184	-0.29485902	0.28988954	0.24525872	-0.18868123	0.15841852	-0.36437324	0.47154102	-0.13874581	0.11013388	-0.1880598	0.5232436	0.40285558	0.40662733	-0.2972976	-0.15494743	0.06834089	-0.2705812	0.09448708	0.44183177	-0.24908537	0.26350945	-0.13495854	0.39064503	-0.021516142	-0.100447446	-0.43423292	-0.3652937	-0.27146107	0.08860829	-0.27443883	-0.3907782	-0.34158495	-0.3702122	0.59192234	0.14375743	0.38987124	-0.2513421	0.28487852	-0.20920867	0.25274062	0.23512007	-0.2314457	-0.18043432	-0.44209218	0.23594105	-0.30148476	0.3427539	0.31536627	0.52201647	0.2135849	-0.046758033	0.006831002	-0.3167726	0.14040309	-0.21719107	0.2829564	0.25228	-0.36752066	-0.33333403	-0.12968066	0.30072471	-0.12870789	0.24755205	-0.21896768	-0.21633081	0.2725835	-0.22290136	-0.057140574	0.3111253	0.40467864	-0.4577756	-0.14807187	-0.33893335	0.31145027	-0.54621524	-0.24785614	-0.20878637	0.23009674	0.07264361	0.37016183	0.31134826	0.2654427	0.025497124	-0.3606999	0.20845774	-0.089237444	0.24582905	0.422778	-0.107658386	0.29250073	-0.3005006	-0.21282949	-0.13166167	-0.16140531	0.43133786	-0.5156286	-0.27246144	0.5399143	0.13881995	-0.6116221	0.20546101	-0.43959868	0.37347013	-0.37150884	-0.4951976	0.23113872	0.51036936	0.3793873	-0.08213418	-0.2902748	-0.35110086	-0.693237	0.004716072	-0.27593017	-0.23161939	-0.38693213	0.41255128	-0.29250354	-0.17567329	0.30350173	0.13448662	-0.34013873	-0.2845271	0.3054531	-0.33286023	-0.22830608	-0.3400875	-0.22079866	-0.004811197	0.61219305	-0.19020824	-0.28349409	-0.3820956	-0.34293306	-0.16814192	-0.36853063	-0.3538842	-0.49621293	-0.3735477	0.11522527	-0.062454645	0.14015865	-0.18687537	-0.29873115	0.170655	-0.38957015	0.17509688	-0.25578192	0.48791182	0.60743856	-0.27560118	0.4388258	0.396231	0.18332526	-0.28338674	-0.38133693	-0.23739652	1.5878212	0.35551834	0.5045105	-0.35728955	0.4435256	0.27946126	-0.32311064	0.07137029	-0.28994024	0.34500867	-0.089823894	-0.28140727	0.23150045	-0.31390718	0.008349846	0.3985206	-0.20863894	-0.04341507	0.82221	-0.17809063	-0.745588	-0.07451495	-0.33825105	0.30875322	0.42593727	-0.06833789	-0.42522532	0.16555206	0.18189009
<http://saffron.insight-centre.org/rdf/relation/transfer_into>_reverse	-0.030051833	0.44413605	-0.043677285	-0.2181181	-0.537578	0.27159622	-0.5512698	0.5287921	0.15637055	0.34392637	0.14844011	-0.57523334	-0.5261326	0.1854128	0.36887458	-0.36119813	-0.06253325	0.62196106	0.49799752	0.41061205	-0.29612377	-0.46981123	-0.29886258	-0.20580713	0.023355868	0.5369657	0.24605446	0.17603366	-0.41525725	0.049806762	-0.58097315	-0.64239365	0.8326867	-0.0042133224	-0.429145	0.36853057	-0.25657976	-0.6687958	0.210859	-0.17752796	-0.15912654	-1.0964223	0.12979615	0.13733883	0.59037364	0.39454702	-0.62128645	0.3740028	0.56288797	-0.38556153	-0.013124119	-0.040371615	0.20519839	-0.66487706	0.4789981	-0.019156907	0.3661014	0.13289541	-0.0645936	-0.35700727	0.33391982	-0.50930613	-0.4314911	-0.17323922	0.32745188	-0.40131184	0.4556161	0.117019996	0.108789496	-0.26275638	-0.91207635	0.35321048	0.060914654	0.002610748	-0.60776937	-0.27480322	-0.1791249	0.018705664	-0.10952773	0.20334478	0.24204335	-0.16143332	0.6557446	-0.27603355	-0.084407575	-0.1554422	-0.032601554	-0.32216936	-0.269153	-0.38145882	0.20201457	0.067732535	-0.6768966	0.54470724	0.44015542	0.23408467	0.23600143	-0.070031404	0.7128074	0.70637536	-0.015349192	-0.5406801	-0.2907756	0.67787254	0.2507685	-0.5627806	1.1018858	0.22179928	0.35358253	-0.0760052	0.036824193	-0.08024342	-0.36368504	0.24960911	-0.68036443	0.43048856	0.32803	0.013793432	0.3829055	0.7130035	0.29661238	-0.07134983	0.14494202	-0.7245923	0.30527672	0.17095682	0.73563606	-0.3005953	-0.011898137	-0.36829346	-0.5729233	0.38366026	-0.41120636	0.39665315	-0.09290456	-0.5183293	-0.4408484	-0.3924713	0.36435696	-0.2824516	0.2988266	-0.121905856	0.19955525	-0.047222048	0.34693843	-0.8007739	-0.304339	0.3129971	-0.42200705	0.07345686	0.40904462	0.24388967	-0.27797085	-0.16648503	0.017825743	0.11711966	-0.22896175	-0.11512088	-0.58823264	-0.2938455	-0.46780193	-0.28912354	0.21313582	-1.0347062	0.1920223	-0.29467285	-0.5911765	-0.53513306	-0.279685	0.41408113	0.50753075	0.057318978	0.34977257	0.30967113	-0.5180848	0.58367187	-0.21715474	-0.8290381	0.5014317	0.16746347	-0.060964372	0.21016335	0.4162069	0.44263265	0.5619125	-0.13793443	-0.61436087	-0.56536597	0.20392042	0.45112494	-0.36500716	-0.0101999	0.46267933	-0.30486465	0.36411574	-0.09798048	0.2860415	0.083438	0.5129776	0.03952691	-0.5421264	0.2540915	0.4991724	-0.40399703	0.5318884	-0.48345986	-0.17875592	0.015525129	-0.47022113	0.31309122	0.3249713	-0.6157165	-0.39568776	0.21889241	0.2883128	0.044480152	-0.45825827	0.1476599	0.52386534	0.008947999	0.39663202	-0.38006014	-0.988892	-0.94175965	-0.29593527	-0.02682705	0.44095588	-0.6476059	-0.061862644	0.07086584	0.4501046	-0.27299115	-0.28273043	-0.48307526	0.54959357	-0.8165452	-0.587845	-0.044944793	-0.10852773	0.015564837	0.27167654	-0.3173294	0.11170054	-0.42064536	-0.2774867	-0.4020384	0.026008042	-0.23529513	0.21210344	-0.1953567	0.4043534	0.37567076	-0.4479439	-0.29123878	0.7353982	-0.31142187	0.47122177	-0.8046985	0.72692955	0.29718274	-0.088829435	0.5079318	-0.48839167	0.042958725	0.25177607	-0.62977266	0.48616174	-0.3061502	0.1097139	-0.55404353	-0.3763445	0.09878927	-0.53339905	0.2534482	-0.012257496	0.43361896	0.44806477	0.18870248	0.2083919	0.33988225	-0.40170196	-0.32634234	-0.51752687	0.21277529	-0.098403275	-0.566104	0.42208928	-0.3309437	0.32054722	-0.11432223	-0.36041355	-0.62566626	0.20159315	-0.06818514	-0.84283954	-0.19373022	-0.32886338	0.4346321	0.2947029	-0.43725836
<http://www.w3.org/1999/02/22-rdf-syntax-ns#type>	0.08454435	0.343368	-0.16166899	-0.24087359	0.2957374	0.20430487	0.24245057	-0.24443252	0.27330232	-0.24036004	-0.11363325	0.19262923	-0.21594195	0.35984212	-0.28716782	0.29266295	0.32679978	-0.066849135	0.107718475	0.21566555	-0.03303089	0.021786379	0.045279976	-0.098385304	-0.0832383	0.038946874	-0.0980368	-0.08576841	0.07200551	0.097281545	0.17417823	0.21995752	0.24663337	0.06322443	0.17178845	0.07410646	-0.00023839643	-0.055722795	-0.24980742	0.053496838	0.13892832	0.1007017	-0.24800968	0.019592587	0.15908293	0.27160332	0.044034965	0.16011868	-0.10094622	-0.18175851	-0.18742114	0.16615094	-0.14138246	0.24365032	-0.009709109	-0.13052824	0.31144175	-0.3058788	0.09729509	0.29745203	-0.22969908	0.17679445	-0.33075443	0.1259213	0.14303185	-0.121002406	0.36039624	0.07796868	0.0957332	0.14164878	0.06332403	0.03928101	0.090400696	-0.19058844	0.11332569	0.14000432	0.0050545195	-0.21366929	0.20699939	0.016116703	-0.059576787	-0.45385697	-0.12981562	-0.025947155	-0.24427861	-0.27336717	0.3628598	0.10355975	-0.13721488	0.04449987	0.04208106	0.06697843	0.20977218	-0.39034823	0.05334679	-0.42635384	-0.3038065	-0.2060026	-0.06853583	0.043773707	0.21274039	0.09878463	0.15049493	0.3903003	-0.10468461	-0.072532535	-0.2529819	0.041099202	-0.21414457	0.09719578	-0.25663343	0.25982076	-0.09445036	0.28467286	0.080667876	-0.028307151	0.11644991	0.033282943	-0.074351385	0.108350374	0.25252727	-0.10192734	-0.072636716	0.15395075	-0.04431017	-0.17519075	-0.11519933	0.13515948	0.0026842686	-0.05851233	0.06736538	0.19111812	-0.20112765	-0.19500919	-0.0109846005	-0.0341164	-0.00063386804	-0.100702114	0.058782093	-0.08275303	-0.10304799	0.019005796	-0.1408824	0.17235649	0.0066355127	-0.30425885	-0.06602103	-0.16617428	-0.32722503	0.13945015	0.28265885	-0.119835876	-0.14110805	-0.087461054	0.27205724	-0.087874174	0.31167415	0.21696435	0.010711408	0.2961928	-0.14642523	0.18294416	0.047914136	0.06663768	-0.044114877	-0.20479153	0.16828212	-0.009142476	0.02759878	0.07765038	-0.20077302	0.058001734	0.04369187	-0.14020148	-0.24684016	0.30306605	-0.39820886	-0.07145834	-0.115585595	-0.22497098	0.2703438	-0.10618106	0.0055507757	-0.13813409	-0.022594461	0.16163942	0.26215616	-0.13133521	0.03271173	-0.29184452	-0.5558177	-0.05351294	0.40495166	0.08740669	-0.24569662	-0.13722427	-0.022388844	0.29405642	-0.23022081	0.01663421	-0.017065898	-0.19953951	0.26399457	0.08884702	0.1215411	0.049869042	0.327183	-0.23062973	-0.08015958	0.06314725	0.24288023	0.021332132	-0.07143503	-0.32158175	-0.26720262	-0.08601134	-0.049442116	-0.25256783	0.06497898	0.190973	0.24821503	0.19196883	-0.11413051	-0.19290665	0.12935963	-0.09305955	0.30171403	0.001653856	-0.16946325	0.1568399	-0.20256521	-0.24448001	0.122799374	0.05898378	-0.025151419	-0.0213699	0.17375362	-0.15479615	-0.016753322	0.34824485	-0.030178104	-0.11087339	0.073072	-0.3324275	0.089493655	-0.13064642	0.18878774	-0.06472857	-0.042095438	-0.1820868	0.15406567	-0.122401364	0.15873139	0.08836059	-0.25019264	0.15954416	-0.012395167	-0.03823551	-0.2505634	0.05043135	0.12965079	-0.2886218	-0.12415551	0.011290139	-0.1183316	0.09713435	0.14967091	-0.17201477	-0.27999038	0.15076648	0.09655073	-0.23208757	0.19485833	0.12675586	0.017141175	0.11725681	0.11251123	0.17324	-0.3183322	0.10304974	-0.18097587	0.020791119	0.052020147	0.23081963	0.16791256	-0.106562346	-0.09103425	-0.15608339	-0.5516427	-0.15590838	0.16664043	0.3922754	0.08859236	-0.1611572	-0.13705488	-0.09671979	0.15682155	-0.21789958	-0.13211697	0.046667863
<http://www.w3.org/1999/02/22-rdf-syntax-ns#type>_reverse	-0.27075008	0.25937176	0.07483222	0.09803263	0.15866359	0.23039386	-0.07841959	0.26168272	0.21769822	0.04275602	0.29009607	-0.3461292	-0.22666083	0.21319318	0.21630123	-0.017153213	0.024913684	-0.042038914	0.08797513	0.03444064	0.022277663	0.18228297	0.11953318	-0.15224832	0.10190915	0.15663882	-0.36070177	-0.038034894	-0.3046303	0.014437137	-0.1399375	0.21651393	-0.1855338	0.30648097	-0.03860423	0.107962035	-0.14706482	0.08961398	-0.01271499	-0.07566272	-0.08069941	-0.16869959	-0.015006589	0.122355014	-0.24941848	-0.053377196	0.054800242	0.17607026	0.14487287	-0.13019867	0.24017182	-0.12573506	-0.14500763	0.08704412	0.31233227	-0.10205485	0.1704888	0.006259251	-0.033194035	0.0022868875	0.13234194	-0.037641056	-0.0727845	-0.022114009	-0.18509395	0.2391605	0.02680374	-0.14815362	-0.048949406	0.21149774	-0.012704289	-0.0015574215	0.1687263	-0.37277898	0.06296933	0.14820088	-0.20725138	-0.1207637	0.14122428	-0.08880792	0.11966277	-0.064686686	-0.3475858	-0.1779872	0.13298415	0.2303391	0.11783086	-0.23813273	0.060189873	0.1749318	-0.4876292	0.1662606	-0.07276619	-0.008340537	-0.105673544	0.24824597	-0.30384478	0.24346696	-0.23206617	0.21315752	-0.19887707	0.20232338	0.024148367	0.12143022	-0.031171795	0.35667664	-0.19834208	0.12863693	0.08261468	0.3356443	-0.09893747	-0.32281432	0.37376255	0.22316065	-0.008721791	0.119255446	0.27391654	0.086076416	0.119967	-0.050061233	-0.11419067	0.2900944	-0.16568759	-0.12585247	0.05250889	-0.040809244	0.15439963	0.17858794	-0.00047522358	0.18670018	0.026308674	0.2566088	0.18689197	0.1383126	0.11403206	0.2986898	-0.19189721	-0.025355313	-0.106882155	0.31128588	-0.0023708579	-0.29804224	0.4144688	-0.11113071	-0.18864067	-0.10346669	-0.22171736	-0.029891973	-0.038596258	-0.15535693	0.11230438	0.056733787	0.0908035	0.01960593	-0.06325432	-0.06453558	-0.21586633	0.4392258	0.39900205	0.33308938	0.2449077	-0.12481842	0.13471206	-0.2979383	0.1640688	0.045993723	0.13345754	0.22414827	0.19647618	-0.20057523	-0.21284953	0.026566831	-0.32815295	-0.0578282	0.2422286	-0.02560751	-0.0003118691	0.32765883	0.04823976	-0.10038366	-0.018071381	0.0161251	-0.06366117	0.024052251	0.33845276	-0.3490977	-0.29345682	-0.10729973	0.08271997	0.42578736	-0.05698806	0.22427365	-0.04737868	-0.01662164	0.15240309	-0.038764026	0.26242846	0.14628296	0.012667308	-0.21921772	0.008788417	0.43387064	-0.24768145	-0.22828743	-0.33940542	0.15557046	-0.039212354	-0.12712933	-0.3135454	0.25373042	0.08794736	-0.07340369	-0.002622111	-0.010695134	-0.007747965	0.1134932	-0.038255792	-0.27331948	0.028174143	0.23425306	0.19374393	-0.02580421	-0.08770193	0.15299144	-0.062443927	-0.07850597	-0.43864912	0.13292354	-0.02394529	-0.24656956	-0.3161233	0.0052800644	0.07271016	0.06601871	-0.18327142	0.46570283	0.31223068	-0.32615155	0.04219444	0.12014361	0.032862823	0.059370086	-0.13866042	-0.07466025	-0.117228664	-0.27911675	-0.20264229	0.015068283	0.27133426	-0.03111514	0.07942501	0.13604507	-0.10863007	-0.033992026	0.24462762	0.2167257	-0.26420552	-0.61887765	-0.31563804	0.036946874	0.19801085	-0.17714384	-0.14691323	-0.6800962	0.006495625	-0.0005088193	0.16610163	-0.20507199	-0.08032281	0.3158981	0.059106987	-0.18679659	-0.07852486	0.09112196	-0.45125476	0.2670569	0.3861118	0.21130523	0.07922039	-0.37253222	-0.13273549	0.11665735	-0.25755012	0.056121986	0.022506593	0.03537787	0.015774243	-0.083265476	0.020286208	0.2100087	-0.043678887	-0.0542204	0.040248327	-0.28230003	0.03902238	0.24853206	0.43364123	0.52132756	0.26493904	-0.379996
<http://www.w3.org/2000/01/rdf-schema#label>	0.074705414	0.37322786	0.39319485	0.23122203	0.09821139	-0.10443578	-0.4142843	0.5495077	0.09486481	-0.24814317	-0.3550306	0.024850978	-0.6955618	0.41450274	-0.22155234	0.16613093	0.66706187	-0.5003349	-0.020814596	-0.47874886	-0.2697429	0.12257738	-0.030818703	-0.11401382	0.053856757	0.08111264	0.16425118	0.060577784	0.3151744	-0.38103256	0.5815836	-0.6563601	0.19177374	-0.035555094	-0.5082408	0.529649	-0.27799714	-0.4843697	0.0068349415	-0.221438	-0.596856	0.036115374	-0.14061971	0.36287886	-0.020653537	0.2739092	0.012954539	-0.3959367	0.16262999	0.12717769	-0.26529422	0.038514454	0.45625153	0.109497145	0.4635339	-0.29471	0.08339736	-0.17640993	0.05298879	0.14906919	0.058489792	-0.015747452	0.5327768	-0.21630698	-0.051575202	-0.21660674	-0.04374032	0.20611085	0.32859778	-0.39680922	0.06647199	-0.36213338	-0.10437704	0.3350668	0.37813845	-0.16939297	-0.5364355	-0.5639189	0.1226115	0.00930435	-0.24166483	0.47840914	0.5004459	-0.46168393	0.038609948	-0.4036479	0.0044490886	0.09757106	0.0788796	0.36221176	0.34979814	-0.1489141	0.39750358	0.2526181	0.3974246	0.4193708	0.07118888	0.42665645	-0.3604592	-0.08448926	-0.6838125	0.25838926	0.21169566	0.33134943	0.44913018	0.17585358	0.87213564	-0.18139328	0.16735756	0.42669615	0.1993124	-0.84631383	-0.47722474	0.43759528	0.52323717	0.14173941	0.017337255	0.1172365	0.35758716	-0.43180177	0.44149217	-0.26514682	-0.21109156	-0.4769007	-0.4100576	0.7572235	-0.2876967	0.033512264	-0.6788811	-0.48474628	0.16851875	-0.23116495	0.23740883	0.5184976	0.035605125	-0.122384705	0.5455858	-0.25300384	-0.01299811	0.25652045	0.2524798	0.3042897	0.35027435	-0.40521955	0.07023399	-0.21006005	0.13574879	-0.19335812	-0.11112135	-0.28134605	0.27937782	-0.34024474	0.10808294	0.3281497	-0.15128724	0.13553312	-0.26071045	0.8055462	0.2547695	0.28131893	0.35158753	-0.0138308	0.2961969	0.27264905	0.40352648	0.7587808	-0.030336991	-0.46463642	0.16485931	-0.5231852	0.12491939	0.38456312	-0.06527635	0.038709074	0.27756828	0.30364347	-0.36632782	-0.48813468	0.6510091	0.3085301	-0.2925416	-0.8087511	-0.36057127	0.1590023	-0.22789651	-0.45911378	-0.22706883	-0.49124202	0.121282004	0.3683421	0.6309212	-0.32171917	-0.0960948	0.66071737	-0.4915189	-0.1478831	0.27737433	0.22382517	0.5988665	-0.5774743	-0.117222466	0.027852984	0.08314331	-0.31784305	-0.75657046	0.5043086	0.55137974	-0.11761943	0.30594468	-0.3814224	0.5390747	0.3157843	0.21360473	-0.69532794	0.0027529302	0.66756296	0.71546865	-0.33621696	-0.2690145	-0.17031053	-0.44490856	0.5166343	0.10882247	0.22573885	0.48672768	0.2105546	-0.26764873	-0.47270015	0.45323697	0.59063345	0.6114526	-0.08819567	-0.40719828	0.21013798	-0.15218137	0.43117255	0.30115488	-0.2682168	-0.68401986	0.06833415	0.689821	-0.23656	0.6438784	0.19784153	-0.3248089	-0.1764836	-0.42778438	-0.011695446	-0.10854948	0.65955323	0.54463756	-0.57951593	0.085520715	-0.1771934	-0.36354235	-0.18200263	0.44039968	0.117300116	0.13567412	-0.0810876	0.03470625	-0.18047883	0.72509366	0.1636469	0.2965764	-0.13439012	-0.2698371	-0.73004687	-0.30738106	0.15091817	-0.6891089	0.1569871	0.4585493	-0.5454923	-0.5662574	0.10324237	0.2007061	0.6054489	-0.048965134	0.014761993	-0.5589848	0.19698137	0.64008456	-0.5542543	1.3349668	-0.074128866	0.45051464	-0.5381414	-0.4619623	-0.26128328	0.08060542	-0.022381678	-0.29685387	-0.1119943	0.5024814	0.57199526	-0.250922	0.20974791	-0.123654895	-0.56515694
<http://www.w3.org/2000/01/rdf-schema#label>_reverse	0.90352434	-0.6332581	-0.5610645	-0.0476808	0.010318015	-0.60706294	-0.32154167	0.49020255	-0.38541424	-0.84237605	-0.5919205	-0.154116	-0.32177415	0.79326224	0.15844242	-0.69047815	0.07033435	0.08950583	0.15749721	-0.6497278	0.5494521	0.23290667	0.6127742	-0.63462865	0.48106074	0.31309462	-0.31177464	-0.17932877	-0.44736212	-0.41731963	0.15674911	0.3863462	0.44325563	0.47764024	-0.46358243	0.6541508	-0.28466594	-0.2693594	0.21060243	0.094597004	0.40553385	0.0999881	0.44573414	-0.27966526	0.068408065	-0.23826686	0.46508202	0.34516343	-0.30593306	-0.38035092	-0.045975193	-0.005703374	0.3458317	0.9048651	-0.4423906	-0.5147366	0.23412883	-0.28172696	-0.043627117	-0.40319332	-0.017614612	0.09441132	-0.44682574	0.644585	-0.30187514	-0.16962524	-0.087721474	-1.0342456	-0.014018901	-0.74887145	0.011093393	-0.13519706	-0.52856714	-0.20765267	-0.24242531	0.27920246	0.17442577	-0.03591051	-0.16035433	-0.23360847	0.88318187	0.3712888	0.3278074	-0.6514775	0.7004121	0.2058696	-0.4096013	0.27881262	-0.3798976	0.30490324	-1.0528575	0.49604967	0.21075787	0.055864368	0.50310385	0.22156455	-0.64074385	-0.5173611	0.0008695397	-0.32815638	0.12457321	-0.11494914	-0.35701	-0.32857326	0.2915419	0.23632842	-0.7874146	0.48733553	0.058828257	0.21126033	-0.03581745	0.8145753	0.5639344	-0.050934482	0.24402358	-0.4392384	-0.0038698716	-0.87967426	0.1930907	0.27882096	-0.10907821	-0.14852819	0.41218698	-0.06951293	-0.010957455	0.4795962	0.32369548	0.46467778	0.4537793	-0.1836549	-0.03180551	-0.0950747	0.3807476	-0.5332623	-0.56060797	-0.17439744	0.05568922	0.535596	0.33294746	0.4583102	0.30174786	-0.16720206	0.5590088	-0.4152439	-0.044347055	-0.7983678	0.52945936	0.22311822	-0.5067898	-0.6189346	-0.5963218	-0.07343549	0.009814374	0.610159	-0.57995856	0.16410732	-0.8355799	-0.015839174	-0.3540926	-0.43635893	-0.26812544	-0.7677106	0.7001261	-0.016213624	0.08487033	0.12437902	-0.16867279	-0.394695	0.32489464	0.55562776	0.5118964	-0.3835865	0.121190436	-0.36336955	-0.49120986	-0.31291786	0.022513807	0.37011853	0.26959297	0.86430407	0.2704601	-0.34203535	0.0563269	-0.011186918	-0.5551169	-0.109759584	-0.2448124	0.4275288	-0.5503003	0.7285384	-0.26008967	0.33121037	0.3230417	-0.6923191	-0.016335499	0.71707094	0.54383403	-0.050780617	-0.47764334	0.47107762	0.09760315	0.24138117	-0.2822857	-0.26428708	0.0058082715	-0.27738574	0.5645856	0.25100797	-0.3290592	0.44348693	0.40191314	-0.22600462	-0.11148789	-0.4834602	-0.5655292	0.18492112	-0.4193287	0.6917114	-0.06133838	0.37822744	0.08060568	-0.4466378	0.59878105	-0.039802324	-0.6626312	0.78652704	-0.53025836	-0.74644256	0.25103727	-0.46722826	0.29771373	0.50947255	-0.37964687	0.12611863	-0.12104893	0.15256198	0.662493	0.3341316	-0.18610713	-0.020690633	-0.3031901	-0.30577073	-0.09438102	-0.021258552	-0.10769571	-0.43788388	-0.060129922	-0.28935596	0.16579683	0.51696646	-0.23531042	0.3942585	-0.30739686	0.26226887	-0.85007447	0.3944296	-0.21297942	0.5569758	0.09366945	0.021028185	0.06691684	-0.15396944	-0.11898065	0.93215895	-0.22385187	-0.21319675	0.30069235	-0.3516696	0.30738267	0.34003648	0.43263307	-0.57207644	0.33143562	-0.6791479	-0.37329495	0.4495597	-0.2015722	-0.14664444	-0.48945072	-0.25838852	-0.15897372	0.21649477	0.21332647	-0.50174046	0.1279996	0.027078288	0.28294346	0.69851625	-0.40570423	0.4613931	0.24677542	0.10628296	0.06890151	-0.042698834	-0.7413753	0.2534973	0.59326434	-0.061130513	0.21024115	-0.3547991
<http://saffron.insight-centre.org/rdf/relation/distribute_into>	-0.026562478	-0.07181817	-0.16843042	-0.104704574	-0.102626815	-0.06688542	-0.029505603	0.02781489	0.0074577723	-0.08944119	-0.095607325	0.018710779	0.010501874	0.02438998	0.039404124	-0.06069633	0.0942702	0.086835824	-0.06955758	-0.006493204	0.035347287	0.06514939	0.17352712	-0.09470471	0.07488764	-0.10165731	0.015769303	-0.052882873	0.05731358	0.06467933	-0.06842979	-0.04273587	0.079421684	0.035095338	0.020693788	0.13748798	0.10244571	-0.10418157	0.13688904	0.0033879806	0.026520444	-0.06384504	0.06754658	-0.02893871	-0.09762312	-0.012527908	-0.14746127	0.018541157	0.11737036	-0.05647403	-0.18025419	-0.11827119	0.059693336	0.021812871	-0.010148383	0.003505249	0.0062514585	-0.014817538	0.092733264	-0.04699468	0.14226393	0.06745609	0.01388684	0.0006289305	0.029505994	0.0112218475	0.010227527	0.0027390507	0.017202152	-0.055029634	0.034183696	0.05629967	0.056162573	0.018578112	-0.026394984	0.025455013	0.047613524	0.027408747	0.0352472	-0.11192795	0.13328058	0.09913989	0.08766397	0.009138036	-0.0048187654	0.07563493	0.0661723	0.103890024	0.0597453	-0.08146956	-0.07423855	-0.06634618	-0.012443142	-0.0012530312	-0.09434659	0.038004097	-0.03290843	-0.022215325	0.027035844	0.009844312	-0.0033102122	0.06453146	0.050231926	-0.049937986	-0.064184025	-0.14623098	-0.083670996	0.038218994	-0.0068326425	0.0018358801	-0.054424975	-0.04396944	0.14799835	-0.040223613	-0.034353655	0.02748654	-0.08839584	-0.057885546	0.022650251	0.07489887	-0.15159601	-0.04656773	0.038537353	-0.014659373	-0.04705851	-0.13472079	-0.11134154	-0.016537454	0.0391945	-0.009154272	-0.0058258018	0.01477214	0.052303303	0.0028174822	0.072836705	0.11986354	0.09790383	0.13347991	-0.078236595	0.033999823	-0.13239849	-0.001015606	0.046378344	0.065636836	0.11511301	0.11357005	-0.13236628	0.03928673	-0.09292847	-0.2107067	0.08268004	0.019787759	0.22286949	0.0314685	-0.037653062	-0.0603269	0.07739586	0.10368673	-0.10191245	-0.031510774	-0.07207198	-0.10624168	0.22974657	-0.03400079	-0.030355139	-0.099777736	0.025710804	-0.06141295	-0.0022726436	-0.0005515077	0.10844849	-0.03540845	-0.008966647	-0.08139343	-0.018205816	-0.08735191	-0.12524585	0.04797306	0.012039606	0.034950014	0.088324964	-0.063854925	-0.033498324	-0.14847235	-0.13016865	0.029852929	0.014960765	0.13410048	-0.009235946	0.037864447	0.045498837	0.15109599	0.088513106	-0.07607652	0.030292671	0.071317874	-0.08381722	-0.10067469	-0.0539269	-0.025097148	0.16117933	-0.119432524	0.04382171	0.016500892	0.05276242	-0.065440886	0.1721629	0.008076301	-0.1090862	-0.17146046	-0.0015206089	-0.011782396	-0.07272378	0.08116112	-0.009132627	-0.09504105	0.18533789	-0.012820668	0.0674258	-0.079902165	-0.04574619	-0.11599566	-0.107112825	-0.03734054	0.21514401	-0.11495724	0.072147705	0.03784852	-0.0533868	0.038864486	-0.14536801	-0.023846252	0.052762084	-0.11819499	0.03527213	0.090203345	0.0942865	0.024157077	0.09914116	-0.05321515	-0.0046529225	-0.052387703	0.1707227	-0.023495866	0.039575104	-0.10616122	-0.073296726	0.038583107	-0.068429835	0.023190068	-0.10176878	-0.05263495	0.04637649	0.031393293	-0.044223744	-0.085256614	-0.08463986	0.0075963903	0.04535489	-0.006298303	0.065938376	-0.046404675	0.03121128	0.0042833374	0.022949312	-0.08394161	-0.032545235	0.092329465	0.082699075	-0.038137	-0.01703088	0.19723827	0.06003306	-0.054836165	0.012430102	0.04107535	-0.022886142	0.033456706	0.072253145	-0.16322865	0.03061612	0.2237464	0.011528411	-0.083250105	0.09624533	-0.12690239	-0.1321616	-0.074092366	0.13791636	0.02181609	0.09486455	-0.12752327	-0.14050838	-0.03705771	-0.069065735	-0.17578313	0.085472286	-0.001383599	0.033972226	-0.06204276
<http://saffron.insight-centre.org/rdf/relation/distribute_into>_reverse	-0.010067625	-0.026238808	-0.038818393	-0.035281695	-0.029091151	0.029970514	-0.026261324	-0.03863699	0.070245124	-0.068152234	0.03820682	0.06054389	-0.0279575	-0.005752042	-0.15005408	-0.034253564	-0.021475092	-0.08136519	0.029900372	0.047995575	-0.00094048184	0.18613252	0.083152406	-0.16869764	-0.085664585	-0.049675595	-0.036733318	0.079323895	0.013591132	-0.008710877	-0.039352287	-0.023895975	0.12329685	0.041809306	-0.043554522	-0.033771705	0.040005036	0.09603578	0.023267662	0.027375942	0.025253322	-0.01001966	-0.06030035	0.098593585	0.04397487	0.01711844	0.005781257	-0.046673216	0.039228607	0.077271365	-0.06901811	0.045383655	0.11045551	0.014265215	-0.17761683	0.01319995	-0.09156835	0.0606828	0.11951441	0.09313526	-0.08878059	-0.04421675	0.03292794	0.124771684	-0.15847814	-0.046122957	-0.0019012361	-0.08538491	0.033514824	0.015773246	-0.064036496	0.018416975	-0.15890515	-0.02530774	-0.13323194	-0.120266244	0.004152591	-0.08220389	-0.16546644	0.086801656	0.028667985	-0.00038401363	-0.02628178	-0.06955792	-0.11563529	-0.10345813	-0.0140162725	-0.10283842	0.093568414	0.13967218	-0.14991984	-0.008868709	0.15106858	0.026581494	-0.08187708	0.041366544	0.09043067	0.056123227	0.11194208	0.13977216	0.07236158	0.08772624	-0.1189704	0.08726427	-0.03404165	-0.11868274	0.02656855	0.023511633	0.034498125	0.004219211	-0.07146806	-0.027208416	0.08252013	-0.00074688834	0.0604352	0.19975325	0.15015636	0.1197143	-0.057076577	0.11767709	-0.11231692	-0.03554749	0.018219307	-0.08094792	0.11577499	0.10669339	-0.10467257	0.011638842	-0.13318683	0.044268806	0.17529145	-0.11443447	0.04379587	-0.020307012	-0.1456437	0.10599041	-0.18192962	-0.045945905	-0.04559904	-0.04565465	-0.10974737	-0.08597594	-0.11767712	-0.017079422	-0.07202276	0.086004846	-0.08249358	0.012706088	-0.0013054963	-0.0019245563	0.047796566	0.03649915	-0.07482053	-0.05846335	0.0184869	-0.059740957	0.12352954	-0.15239583	0.16893618	0.08553493	0.043765694	-0.060939115	0.071018964	-0.11058028	-0.043315332	-0.048622802	-0.0969672	-0.01846362	0.17174952	0.0866702	0.04583259	0.04040224	-0.04147739	-0.061318923	-0.059475172	0.13007195	-0.0026658354	0.025788557	0.037377395	0.0015667215	-0.0113688065	0.01590361	0.009365777	-0.056542177	-0.046087503	-0.17122324	0.13953897	-0.039566	-0.00028252366	-0.0014874581	0.014726552	-0.06495772	0.0326564	0.07154301	0.021108517	-0.06481767	0.07116006	0.09699664	0.039478887	0.011632115	0.017099002	-0.060886502	-0.0584272	-0.066240534	-0.049194753	-0.03419021	-0.18540037	-0.11600722	0.04840175	-0.105790846	-0.04524243	0.09596586	-0.0021661888	0.08268656	-0.14169587	-0.011479489	-0.08850977	0.014217259	-0.039422926	0.048190076	-0.04781866	0.07994665	0.06096968	-0.063440055	0.050249983	-0.0023402786	0.03552836	0.10750129	0.09154289	0.05094759	-0.031092357	-0.061154615	-0.0076467707	0.035002846	0.100090235	-0.16702674	0.17190434	0.030862149	0.022495657	-0.038697727	-0.048941292	-0.020657096	-0.024595102	0.083705135	0.10807892	0.013403795	0.124375075	-0.054103497	0.049215347	-0.046307873	0.09463092	0.005348932	0.07484304	0.14690949	0.048771504	0.1909374	-0.07892751	0.11784208	-0.10825686	-0.04636365	0.07454673	-0.035025984	0.030920109	0.04063729	-0.0027070583	-0.008805397	0.020209203	-0.10749458	0.04280031	-0.029161256	0.057705965	0.09333786	0.060621537	-0.18901092	0.0538474	-0.01596906	0.11540273	-0.072401516	-0.08461679	0.0014608966	-0.021043578	-0.0478274	0.028138997	-0.07556853	-0.106722385	-0.058719195	0.025122987	0.029961381	0.06829597	-0.013467672	0.055528037	-0.055544946	0.05441695	-0.03453752	-0.08160253	0.005402528	-0.022498073	0.06720949	-0.061152495	-0.10693542
<http://saffron.insight-centre.org/rdf/relation/emphasize_because>	-0.048303697	0.004401263	-0.00969665	-0.01517345	0.055686098	-0.035996683	-0.015998451	0.16637106	0.1554887	0.045959666	0.1467601	-0.04964595	-0.03801597	-0.09996332	-0.15903904	-0.00951195	0.022800036	-0.118692935	0.0949791	0.08635528	0.13801973	0.026735822	0.2359252	0.035108548	-0.09339636	0.11671283	0.020247458	-0.04220139	0.0035167201	-0.07871511	0.11201152	-9.1265116e-05	0.02127445	0.07655524	0.102328524	-0.09399511	-0.12157588	0.011536691	0.08302235	0.03282483	-0.04609975	0.06897495	-0.12375662	-0.0479111	0.044868317	-0.06334313	-0.010619187	0.05529455	-0.03185989	0.14145988	-0.03488299	0.08396133	0.006547097	-0.09166782	0.0029224502	0.1097791	0.09020298	0.063225776	0.03091896	-0.16325718	-0.10382082	0.019162698	0.08280698	-0.05526199	0.15399118	-0.03637778	0.14106566	0.094334126	-0.04435629	-0.07993941	0.028541518	-0.05708424	-0.0628862	0.06716049	-0.077171266	0.04652672	0.05545602	-0.014554082	-0.12731308	0.0025537822	-0.103470586	-0.02302303	-0.04368973	0.10761462	-0.07881626	-0.048613034	-0.045078658	0.012549909	0.002855528	-0.12555507	-0.0071729715	-0.023006184	0.07314068	-0.0662913	0.023110148	0.011018043	0.013643467	0.02526183	-0.09615793	0.07907014	-0.081655815	0.06372816	-0.18376483	-0.028598372	-0.12940305	0.027209692	0.07321384	-0.040496517	0.03755268	-0.107193366	-0.123754874	0.072165005	-0.0831426	-0.044634067	-0.06400616	-0.14609894	0.097876735	-0.09643859	0.102317914	-0.027567135	0.024133049	0.025075505	-0.102850154	0.025420576	-0.06554616	0.086932085	-0.11331289	-0.1423443	0.15215743	0.04447433	0.065087035	0.022874983	-0.17167981	-0.10081099	0.056897506	0.08296311	0.016971653	0.10827161	0.011097615	0.057110123	-0.04121894	0.052250016	0.030181477	0.061668426	0.014176449	-0.035896193	-0.017746901	-0.025006423	-0.104411624	-0.09119324	-0.041960552	0.1409426	0.051246088	-0.032483812	0.07356483	0.076451525	-0.032705825	-0.047857355	0.05665209	0.01548587	-0.07575752	0.06369242	-0.034188364	0.03627979	0.026153551	-0.16557275	0.06456	-0.1571112	-0.13269477	-0.043859664	-0.03476649	-0.03325535	0.05765984	0.1545222	-0.08139693	0.07056265	0.023777306	-0.10734537	-0.06280339	0.149527	-0.060990043	0.02109135	0.01216485	-0.016200133	0.12711534	0.22173102	0.092237376	0.13213038	-0.20610808	-0.026515806	-0.0065808147	0.058370806	0.022285385	-0.051697724	0.10234856	-0.005394975	-0.037111484	-0.00060690136	0.0054645627	-0.04017039	0.09180698	-0.004442047	0.15656833	-0.033818956	-0.047537353	0.07430264	-0.1131402	0.028827606	-0.011897955	-0.01705515	-0.037809715	0.023727383	-0.044204954	0.05544844	0.0038110965	0.025333172	-0.08380297	-0.020656118	0.0077337115	-0.07324566	0.08938375	0.023634512	0.09614345	0.14254688	-0.1437605	-0.068225004	0.09388303	0.028411025	0.016833244	0.0736163	0.110602364	-0.13673091	0.057437606	-0.03885412	-0.059116803	0.081545115	0.098546185	0.0038557914	-0.09333931	-0.18834777	-0.00968708	-0.023248088	0.024586093	-0.04262249	-0.10660685	0.034273464	-0.05473128	-0.008362758	-0.053711426	-0.13204016	0.15180011	0.029824756	-0.035285104	0.05954285	-0.1029591	-0.09749385	-0.039034646	0.071013406	-0.0026356266	0.024170924	0.1441928	-0.050540328	0.007880409	0.05146548	-0.010002747	0.04462712	-0.0053064977	0.096719064	0.08993374	0.02377436	0.055904735	-0.08251067	-0.084142685	-0.1361179	0.037780575	-0.02038989	0.015611484	0.015199986	-0.005089633	-0.06712407	0.050258767	0.052473582	0.037525136	-0.15207274	0.111490846	0.12425596	-0.06984062	-0.034391586	0.03542113	0.01701365	0.029043272	-0.011480575	-0.033374842	-0.01584807	-0.023979647	-0.05480233	0.0660034	0.06677775	0.031062305	0.056574784
<http://saffron.insight-centre.org/rdf/relation/emphasize_because>_reverse	0.062459234	0.009860832	0.06819298	0.038422428	0.017539162	0.07695275	-0.18148884	0.02589248	0.09084908	0.0075544515	0.050683215	0.031040335	0.016093094	-0.026958209	-0.030403351	-0.056238234	0.16993712	-0.010296671	-0.0389207	0.08897446	0.039180078	-0.036388624	-0.054562602	-0.010509569	-0.016942482	0.045575883	0.08544976	0.057743676	0.15407236	0.012905935	0.011707951	0.028593753	-0.014677396	0.015562067	0.0029581867	-0.062676325	0.028276728	0.08543122	0.029111108	0.10887859	0.10656687	-0.03371846	0.072135784	-0.0932749	-0.07748283	0.027081259	-0.016510427	0.104677685	-0.0495058	0.019558692	-0.047334403	0.0023810335	-0.022671094	-0.013677848	-0.060789235	0.10904715	-0.04988037	0.039614443	0.19040751	-0.02290524	-0.113821365	-0.10084452	-0.0805923	0.02242822	0.06676099	0.063642435	0.025543423	-0.06447506	0.021693934	-0.1311615	0.20509078	-0.040765014	0.09459162	0.00062630087	0.17304906	0.05147484	0.06282667	-0.05707828	-0.019050637	0.023901796	0.10296973	-0.037380174	0.019029755	-0.0056631505	-0.07340289	0.05712842	0.030145107	-0.1287399	0.095082715	-0.01639532	-0.013670773	-0.022596821	0.07255624	-0.013980108	-0.095728874	-0.040935244	0.034831565	-0.057154674	-0.011880528	-0.04220873	-0.044837568	-0.0010484755	-0.08426766	-0.2012177	-0.10041265	-0.050500993	-0.038503036	-0.12638834	0.075872496	0.026096454	-0.048592184	0.06612438	0.10846164	0.020321023	0.10313386	-0.119155236	-0.0006850079	0.06586788	-0.08392843	0.1211596	0.04506584	0.027853295	0.026874047	0.19051825	0.14875631	-0.10722682	0.07681226	0.03557766	0.015015157	0.06539904	0.037689727	-0.04515459	0.009852203	0.090702735	0.023803562	-0.05760874	0.06530714	0.08101933	0.004432793	-0.09557211	-0.04857589	-0.04818123	-0.09720526	0.044082217	0.07813175	-0.09003252	0.060931955	0.14782628	0.008199881	0.13275015	-0.011472947	0.16026598	0.01606075	0.047420356	-0.13843055	-0.015213461	0.0017630953	0.05915672	-0.026737582	-0.13061315	0.07865183	0.014955176	-0.032153364	-0.15374202	0.09845551	-0.081420876	-0.04466719	-0.030335043	0.083975315	-0.07092844	0.027313722	0.015813772	-0.015846087	0.043632645	0.07375911	0.12757438	-0.101674765	-0.010173699	-0.119266145	-0.02831826	-0.017700683	-0.029584222	0.11347259	0.030963454	-0.1105868	0.07466765	-0.06824122	-0.036187474	-0.02344479	-0.09577115	0.06410218	-0.072795145	0.06765206	0.06520678	-0.027751075	0.20419134	0.043759286	-0.01721116	-0.020107687	-0.0037602761	0.0951186	0.051112417	-0.010354004	0.06327834	0.002521258	-0.047415733	0.07046565	0.14543776	0.057254333	0.12291147	0.034387093	0.07996649	0.03459168	-0.147302	0.04026684	0.045714445	-0.12447079	-0.096404985	0.012991527	0.21006924	-0.034266308	0.0989948	0.038174443	0.11538437	0.17449763	-0.012863351	-0.06688704	0.021928253	0.033432063	-0.06965372	0.15990129	0.06625827	-0.16382876	-0.06831694	0.13786368	0.10221579	-0.018650519	-0.044062126	-0.07957019	-0.03918023	0.05698267	0.036501855	0.051810883	-0.14393786	-0.022490581	0.082119904	-0.009116158	-0.039088227	0.04290226	0.042853493	0.028633801	-0.084632866	-0.09781709	-0.036500983	-0.022739759	-0.09577282	0.12299998	0.06578995	0.04200409	-0.041168496	-0.09317366	0.015109703	0.023338897	0.110831946	0.07802761	0.11338017	-0.008612884	-0.006405755	-0.011929858	-0.037433438	-0.03138822	-0.057137784	-0.14356673	0.061096616	0.022920618	0.06907742	-0.023604196	-0.11845646	0.016973086	0.06686316	0.03159687	0.007214991	0.09687353	0.0031239386	0.05574532	-0.049904548	0.18031472	0.06034924	0.061567016	-0.029147694	0.091973655	0.016662722	0.043273475	-0.057939198	-0.14721599	-0.097133316	0.12686485	-0.07051359	-0.06060752	0.0013617515
<http://saffron.insight-centre.org/rdf/relation/mean>	0.12781571	0.06792805	-0.056190085	-0.076644436	-0.021036915	-0.024386484	-0.06611489	0.10674785	0.019841138	-0.0459688	-0.082877696	-0.0639846	0.13268195	-0.037440207	0.008161312	0.10058754	0.055105686	0.039675914	0.0383821	0.01887781	0.04529471	0.0063121933	-0.10890911	0.036089204	-0.029502528	-0.024406105	0.11128285	0.0565561	0.022890901	0.02612419	-0.030833574	0.021158969	-0.15242746	-0.0070203706	0.21055399	0.10265965	0.009908658	-0.03529229	0.042771462	0.07499892	0.08548344	-0.0035751548	0.048210673	0.0136811	-0.085025795	0.05632592	0.024302129	-0.0035728882	-0.03598357	0.15728533	0.04677146	-0.077790946	0.028322203	-0.02524084	0.042366296	0.12796749	-0.11825528	-0.03907792	0.1512924	-0.021338897	-0.03644016	0.026211435	-0.14739	-0.01860024	0.048708044	-0.041252136	-0.024775308	0.010302884	-0.05564495	0.19817622	0.021320032	-0.06886952	0.0228209	0.089838766	-0.05550988	0.14336447	0.06682153	0.011167055	-0.036618713	-0.015650144	0.019762238	-0.11505684	-0.056147713	0.005493747	-0.11066374	0.0707677	-0.06309261	-0.05313075	-0.006045468	0.00562804	0.029988201	-0.109086744	0.023990871	0.028818762	-0.094591826	-0.0029377246	0.017636772	0.022610398	-0.05557964	-0.0016014209	-0.0033080084	0.008813499	-0.098806076	0.0125391055	0.08023901	0.0517534	-0.057373703	0.011588622	0.2033568	-0.0503427	0.10189955	0.008552503	-0.07276071	-0.10000332	-0.023890417	-0.060161233	-0.058063217	-0.04618577	-0.06244724	0.04640921	0.0205328	-0.0013230039	0.059900668	0.09135782	0.06302705	0.08964013	-0.05012066	-0.07799331	-0.13173576	0.05925495	0.10161044	-0.014816317	0.038876604	0.047773015	0.13114272	0.015047009	0.054280914	0.06697579	-0.0074961935	-0.020014917	0.037339117	0.006053779	-0.12412023	-0.06599836	-0.102276996	-0.050848242	0.017755292	0.10028826	0.11068915	0.0024321123	0.03145087	0.03916221	0.060765333	-0.1956123	0.07653555	-0.022291059	0.04803317	-0.055491988	0.049710073	0.08886091	-0.013193318	-0.0618086	0.085229784	0.12368559	-0.053285338	0.029481051	-0.001672617	-0.055733636	-0.007821761	0.1597749	-0.014275757	0.02574095	-0.10168176	0.07390231	-0.015243741	0.10882079	0.14592913	-0.010174181	-0.092684895	0.048772328	-0.018812893	-0.10868578	0.18408138	0.06966756	-0.054782167	0.031470623	0.018162666	0.034057546	0.014956517	0.089764245	0.099501036	0.13284336	0.014814123	0.007386304	0.024611631	0.04339637	0.052439395	-0.07044781	-0.080595315	0.038753882	-0.00644253	0.09913758	-0.012705904	0.06864174	0.00568953	-0.05857508	-0.005078208	0.063484855	0.06839284	0.06485152	-0.05733115	0.0018939015	0.044935178	-0.07343915	-0.010965825	0.11253352	-0.09535109	0.106054544	0.11025309	-0.012948186	-0.18770282	0.035057124	0.030703245	-0.0475526	-0.0088772485	-0.039056636	0.04352526	-0.11852711	-0.017150767	-0.024611535	0.097306825	0.090894446	-0.09909737	-0.0074970243	-0.016442087	0.18334374	0.007739493	-0.03207045	-0.12015701	-0.019643685	0.019296583	-0.013425686	0.020587571	0.060269434	-0.047097053	0.048736475	0.12190073	0.079520315	0.018277194	-0.033145834	-0.0018846662	-0.00014237092	0.023644092	-0.0040442515	0.07079179	-0.037261795	0.027766792	-0.054920007	0.0029874488	-0.17583354	0.051200382	0.08292392	0.0014153483	-0.047007184	0.083002865	0.033126883	-0.032213576	0.022264099	-0.06988614	0.056330204	0.13413715	0.057044197	-0.12472028	-0.0073058605	0.053013016	-0.01654829	-0.17533962	-0.04239745	0.015621095	-0.041929796	0.07212594	0.060822707	0.024428062	-0.019665873	0.006603934	-0.13927306	0.096648514	-0.034418635	-0.05388558	-0.01192369	0.07103021	0.047335062	-0.1292852	0.07692693	0.00020809472	0.05066432	-0.01325459	0.1038089	-0.054849494	-0.007837765
<http://saffron.insight-centre.org/rdf/relation/mean>_reverse	-0.06410815	-0.04162376	0.009692893	0.059866183	0.0061099343	-0.01636146	0.11700693	0.18983929	0.013342264	0.098338716	-0.09855283	-0.07431211	-0.082871415	-0.06845691	0.069390096	0.0030085861	0.028693905	-0.04901391	-0.042196173	0.005041556	-0.098670945	0.005491921	-0.1455781	0.07313728	-0.025033098	-0.13036655	-0.10980058	-0.03384139	0.07800863	-0.09898544	0.0059670554	-0.03280842	0.03626574	0.14257172	0.112528265	0.13095796	-0.05485155	-0.062093772	-0.11169726	-0.07432459	0.01132934	-0.016224789	0.017323136	0.091020636	0.025454812	0.03095768	0.016293311	-0.0057162885	-0.01989778	0.09363199	0.048493993	-0.16318493	-0.11809533	-0.018251132	0.13449766	-0.04019007	0.03069182	0.09980664	-0.024434581	-0.04246639	0.0959111	-0.038777664	0.11053356	-0.056615036	0.0087842215	0.07120435	-0.07416254	-0.079041876	0.040979024	-0.030665083	-0.0080713015	0.019832717	0.028183986	0.078328975	-0.034186866	0.022551106	-0.047658097	-0.035198025	0.105962366	-0.015450847	0.10951346	-0.1394265	0.0052225613	-0.036310393	-0.03620067	0.0057366197	-0.02513737	0.059916954	0.06396721	0.14239512	0.0057531893	-0.033910874	0.031188235	0.049565833	-0.092689015	0.043014284	0.049896177	-0.0027160041	0.0094434135	0.0047960044	0.06745004	0.10416417	-0.10177578	0.07448117	-0.04485753	5.2815994e-05	0.056764092	-0.2103009	0.027364671	0.06265741	-0.04885636	0.041026294	0.07762596	0.02215208	-0.071306415	-0.073099725	-0.025645634	0.11134016	-0.020998973	-0.057320166	-0.011554065	0.07403658	-0.23937076	0.04976696	-0.075407356	0.16208088	-0.0033520132	-0.08113138	0.04504204	-0.09228322	-0.07546566	0.03345265	-0.15403609	0.0968444	-0.0046410616	-0.051357783	0.042750448	-0.07190156	-0.14598115	0.03435085	-0.049991254	-0.09926222	0.010136457	0.0117234085	0.02922908	-0.08138445	-0.070301965	0.044996154	0.006472507	0.032223403	0.079541996	-0.011369535	-0.002223939	-0.073067844	0.045977022	-0.026841553	-0.11685313	-0.013085686	0.115402006	0.044908125	0.06509379	0.10352191	0.008902695	-0.03585153	-0.088279106	-0.04809546	-0.082523346	-0.051758774	0.0056447545	-0.007020308	0.044237453	0.010685167	0.048227932	0.039493006	-0.010642435	-0.01256712	0.027436506	0.09821719	0.063822515	-0.033805534	-0.09463916	-0.001368032	0.042640705	-0.022502057	-0.01784293	0.07166417	0.030632187	0.03815927	-0.11118638	0.11397184	-0.10353692	-0.049420413	0.011560912	0.0845325	-0.02305369	-0.04390216	0.04754101	0.016414901	0.040334634	0.20414439	0.027960826	0.08705457	0.020221312	0.032991458	-0.09798699	0.08406147	-0.0825025	-0.0054599345	0.12007059	-0.068280265	0.11963403	0.19202535	0.097099185	-0.10870569	-0.12270476	0.07898466	0.06044134	0.028674189	-0.05538353	-0.10611196	-0.018691152	-0.06593426	0.008352789	0.06137113	0.06965182	0.032896243	0.17473207	-0.027907265	-0.06408478	0.044220217	-0.07636065	0.033421688	0.07480484	0.048712306	0.031217387	0.0035043743	0.07393601	0.106506154	-0.02474671	0.020587126	-0.06724455	-0.022203518	-0.063345544	-0.04926496	0.04641999	0.004717462	0.15006088	-0.06977464	-0.2567706	0.010173318	0.0292867	-0.08829454	0.024263823	-0.0651139	-0.09030949	0.011848657	0.03189171	-0.058242228	-0.027375259	0.084972434	-0.07227338	-0.03565711	0.15103024	-0.049852613	0.16146173	0.10402965	0.06714147	0.041493308	-0.092497766	0.04708316	0.13112602	0.0029028354	-0.048361823	-0.034933537	-0.11574455	0.114638016	0.034648627	-0.0028902206	0.014787172	0.11211961	0.08003921	-0.016554581	0.18865398	-0.06933243	-0.05209515	-0.0657392	0.048367713	-0.083837084	0.011623017	-0.092083514	-0.1072317	-0.029674763	0.14510545	0.010983029	0.039403655	-0.016057014	0.12891932	-6.862326e-05	-0.10781785	-0.0073644356
<http://saffron.insight-centre.org/rdf/relation/help>	0.06693118	-0.078213274	-0.16782257	-0.042275146	0.07115544	0.0073928074	-0.039063394	0.023974823	-0.09269305	-0.009906802	0.07281214	-0.047365382	-0.034513377	0.11123295	0.063610256	0.20946461	0.09312783	-0.08382823	-0.05475182	-0.003615682	0.04940252	-0.05760438	0.036843978	-0.005767968	0.17943217	0.13147989	-0.09256031	0.14342126	0.120992646	0.05497584	-0.03569142	-0.0032557282	-0.104147024	-0.020199444	-0.0007500373	-9.168042e-05	0.015830845	0.10275057	-0.022742052	-0.09352405	0.04714901	0.04318053	0.07165379	-0.0033711067	0.05342975	-0.11083022	-0.04867895	-0.071591295	0.034811903	-0.00033653	-0.031668752	0.09290085	-0.038330734	-0.024774313	0.045944925	-0.010157424	-0.06607648	-0.06103447	0.004586494	-0.08288532	0.114252634	0.011270338	-0.062660545	0.13592173	-0.004170215	-0.0182898	0.015723037	0.035184704	-0.06808945	0.0010428987	-0.030927343	0.0855836	-0.043336306	-0.049962223	-0.04472012	-0.038239617	0.14161891	-0.031169008	-0.139189	0.044157993	0.0827337	0.010224691	0.08077321	0.090097055	0.04785404	0.074375294	0.014822459	0.04457316	0.13969718	-0.037568294	-0.081663065	0.06585782	0.22631979	0.00033633588	0.016724138	0.08671224	-0.032670777	-0.011905182	0.022235153	-0.017907798	0.044522967	-0.072097756	0.12557115	0.058427867	-0.0210973	0.036016986	-0.06283427	0.013248354	-0.10527588	0.1737413	0.12200751	0.010977693	-0.036807016	0.026565222	-0.016548326	0.042895198	-0.03342688	0.010986753	0.03038733	-0.005839065	0.055843875	-0.15726447	-0.030017247	0.20167731	-0.14482841	0.020930042	0.06331493	0.08699545	-0.090817876	-0.04105285	-0.045910187	-0.02905745	0.17864865	-0.02817582	0.02731001	0.058958568	-0.08025533	-0.15744299	-0.044675432	0.08027981	-0.05270498	0.005115792	-0.03868013	0.1005868	0.102648884	-0.1330073	0.111976326	0.020328794	0.19520727	0.025112217	-0.06753898	0.02607846	-0.07063965	0.0603294	0.11479211	0.05263357	0.0154334	-0.05078693	0.04304924	0.11929048	-0.0141535215	0.025192525	-0.053741835	0.025666218	-0.06862135	-0.092262864	0.17077617	0.06341954	0.15196073	-0.08163631	0.117668115	0.17344165	-0.0272159	-0.069806516	-0.0474869	0.12437937	-0.065909706	0.0021408966	-0.12175136	-0.08603921	0.1131579	0.12615535	-0.077016175	-0.02862051	-0.12187369	0.061662234	0.019221043	0.12079098	-0.15625864	0.20758204	-0.096124694	-0.004042186	0.13227879	-0.037081458	0.1445654	-0.17832765	-0.0016882402	-0.051384557	-0.015038924	-0.01658626	-0.13097213	0.055567	0.15774292	0.18187246	-0.060205597	-0.023458416	0.00539715	0.029077666	0.004270919	0.035533216	0.0804524	-0.1257081	-0.08032886	0.11401205	-0.12701626	0.08525421	0.014022517	-0.06347072	-0.09369125	0.042353477	0.10949274	-0.023985667	-0.08102813	-0.03690608	-0.046445098	-0.00422825	-0.058758564	-0.020377737	-0.0014426203	0.13531448	0.0870645	-0.005565341	0.0339891	-0.06620991	0.05777928	-0.12464159	0.029801095	-0.02662625	-0.012443592	0.027341934	0.10368687	0.083300516	0.1033094	-0.041364636	-0.04988985	0.0116613265	-0.022641204	0.02066236	-0.023389392	-0.13992196	-0.04935235	-0.0074408054	0.048268553	-0.053436466	-0.10165084	-0.21240595	0.035608925	-0.068682685	0.116261385	0.021820309	0.046146158	-0.036524516	-0.045223117	0.012673596	-0.056660566	-0.121193685	-0.13914391	0.02552326	-0.04750167	0.026002966	-0.059937045	0.051636543	-0.03009745	-0.12086854	-0.037915513	-0.07194839	-0.005402285	-0.14077343	-0.043954287	0.10633442	-0.06331039	-0.10625138	0.008126207	0.11493972	0.023452772	0.07264097	-0.06965037	0.064408444	-0.000791214	-0.0821025	-0.015631407	-0.061139185	0.10966643	-0.09209025	0.005816226	0.1573311	0.11228607	-0.07716215	0.061635386	0.06457859
<http://saffron.insight-centre.org/rdf/relation/help>_reverse	0.13101053	-0.0065462813	-0.051250856	0.08461925	0.049671166	-0.015700398	0.01801218	0.100589186	-0.14499436	-0.019029574	-0.053987976	-0.063003495	-0.02455056	0.123046435	0.007225149	-0.026658094	0.058810133	-0.00025825854	-0.11619611	-0.015502156	0.009423247	-0.04459591	-0.022249341	0.01071767	-0.048076577	0.0017427074	0.047615584	0.08672478	0.006190363	0.05203706	-0.05967247	-0.015407077	-0.012036356	0.0919697	0.0067064255	0.0008706046	-0.047156915	-0.073176496	0.03849494	0.054781303	-0.15607846	-0.08890785	0.007840869	0.018091794	0.046058897	-0.06631734	0.13064463	-0.024152411	-0.0066226334	0.04187118	0.14156805	0.015946534	-0.10211684	0.0018264718	-0.0644489	-0.017229374	0.02652989	-0.010683877	-0.1496155	0.13803633	-0.10545204	0.040031146	-0.0204154	0.0795107	0.09670184	-0.025923543	-0.06741758	0.13953276	-0.04461156	0.09061938	0.00815225	-0.05104024	-0.026330179	0.10755152	-0.13072228	-0.11589803	-0.020648623	-0.019718273	0.036457516	-0.041069806	-0.030717552	-0.03266893	-0.093662895	0.029938284	-0.06781402	-0.031539712	-0.07512907	-0.15675342	-0.022562943	-0.025684325	0.0637448	-0.10022413	0.054750305	0.039667845	-0.15611658	-0.05654933	-0.045757752	0.08541014	0.03029586	0.017437428	0.14825238	-0.034000155	0.14752927	-0.02361087	-0.011372169	0.009300894	0.025592353	0.11475709	0.095591955	-0.02430237	0.07465429	0.07985484	0.016248625	0.007902083	-0.115975365	0.10191539	0.11684468	-0.08542371	0.11192705	-0.04943082	0.011175885	0.019997958	-0.11366183	-0.078764915	0.064486526	-0.00797843	-0.01733073	-0.0054823165	0.0019691938	-0.010358916	-0.0014709763	-0.08399656	0.07200623	-0.008649614	-0.05947254	-0.10155563	-0.011643999	0.08525596	-0.017134853	0.0611514	-0.050898086	0.0892927	-0.014792199	0.14311019	0.0346341	-0.050268058	-0.06633827	0.05565379	-0.06704811	-0.10069009	-0.059401907	-0.034742076	-0.1951955	0.07163284	-0.13204876	-0.104869545	0.0347938	-0.17262189	-0.00017736785	0.03711221	0.06961792	-0.0030901425	-0.008888192	0.004313678	0.08636185	-0.0043366663	0.08565687	-0.0042561083	0.029650766	-0.06123949	-0.04106523	-0.021994205	0.04293922	0.00743419	0.019467745	-0.09856424	0.06536342	-0.07838442	-0.078719124	0.009784876	-0.12837622	-0.1391813	-0.006449662	-0.047954604	0.130385	0.056552857	0.07579862	0.010810444	0.118956245	0.041750066	0.13241239	-0.12194146	-0.049240645	0.06362604	0.0016125798	-0.0046142894	-0.015850745	-0.03295907	-0.08362465	0.122010335	-0.12887487	-0.017162016	-0.08019243	-0.09346375	0.019973278	0.017484518	0.049237292	0.024863418	-0.004274363	-0.017363332	-0.08663001	0.08940403	-0.13233519	0.008004857	0.036145583	-0.18167044	0.1418708	0.00741899	0.06686637	-0.00966563	-0.057609886	0.15981072	0.095456146	-0.08349133	-0.08010526	-0.059764825	-0.030405805	-0.024394445	-0.05985527	-0.12118951	0.18828754	0.112572856	-0.08742264	0.011337412	0.08426005	0.091261044	0.016751444	0.010014857	0.07127593	0.15549229	0.029228335	0.049432643	-0.11393372	-0.0042169048	0.071144335	0.12588294	-0.10906289	0.2211869	0.0010484058	-0.057706792	-0.03916686	0.025098734	-0.10410735	-0.09352593	0.1348531	0.15445316	-0.06436557	0.02572671	0.04253984	-0.08023754	0.034227937	-0.15948017	0.11227874	-0.12321282	-0.012664694	0.13995758	-0.0595582	0.067713454	0.100636356	-0.021440456	0.009849696	-0.11042649	-0.017749509	0.033939373	-0.20722705	0.12477893	-0.048528515	0.13266814	0.0006375651	0.009583398	-0.025348706	-0.14331299	0.03944065	-0.06231185	0.010816013	0.023460587	0.08282636	-0.0757123	-0.23695508	-0.083989315	-0.042319324	-0.12385905	0.095021285	-0.09374605	-0.10118771	-0.017537393	0.01737061	0.05986195	-0.04371396	-0.04562354
